1163 100
么 0.4367539 -1.3635098 0.979135 -0.13544464 -2.3789291 0.5865951 -0.32546747 0.069764525 -0.69535446 0.011216154 0.025154172 -0.18186887 0.38501617 1.2988665 -1.7732873 -0.115488105 0.04267434 0.045276966 -1.7499049 -1.4357057 -0.4459503 -0.3499617 1.1776619 -0.44313672 -0.52012336 -0.64404935 0.8068528 1.445052 -0.76157147 0.7057661 -0.45854992 -1.3928164 0.945569 -0.8996824 0.8853886 0.061224896 0.07314214 -1.3708477 0.38015717 0.791667 -1.8439149 -0.40421313 -1.1981176 0.0849469 -1.7724515 -0.46794328 -1.1510764 2.2165773 -0.92254627 0.54349804 -0.5466474 0.41396287 -0.60447466 0.30195493 1.6459845 0.23284632 0.7163452 -0.012180065 0.022640727 1.2135564 -0.24784422 -1.8530319 -2.0727808 -0.24155426 1.4638218 0.36018112 -0.7349843 -0.14706104 0.055068936 0.33377856 1.5511897 1.4026151 -0.4350801 -1.4280772 -0.41564125 -0.39945745 2.0133924 -0.47259983 -0.44133607 0.5813665 -0.13143967 -0.358324 0.6678838 0.855699 -1.7218909 0.8075092 0.15695417 -1.2585133 -0.69472426 0.8571266 0.14519714 -1.0102781 -0.34885067 0.1486665 1.8067338 -0.29492325 -0.6008995 -0.47419944 0.33870628 -0.64565724
款 -0.33845192 -0.35025445 2.1243508 0.018800955 0.3534886 1.7194299 -1.0550749 0.026504807 0.23604392 -0.41932234 -0.20670308 0.3623018 -0.18882628 0.9449099 -0.0024538836 0.2887334 0.8795093 1.7437754 -0.35562453 0.3911697 -0.3350103 0.04560578 0.19892988 -0.60781044 0.78275657 0.26848415 0.011539789 0.5305784 -1.1970459 0.09628294 0.4552529 -0.40482756 0.8454463 -1.2007838 0.546195 -1.2787418 1.1329045 1.5050032 0.87690616 1.3006504 0.5038239 0.7658329 -0.9565516 0.16719387 0.7563521 0.67645484 0.6350627 0.16693099 0.92857397 -0.32334647 0.32871345 -0.765629 -0.71876687 -0.14300609 -0.22763465 2.0148103 1.8386061 1.243807 1.8789291 1.6114916 -0.20155689 0.22440529 -0.53842217 -1.1135013 -0.35037565 0.08135737 1.393247 -0.8130746 0.99889463 1.2181883 0.84435356 -1.6939013 0.6317293 0.63772786 0.6204378 0.19572614 -0.73302805 -1.1970075 0.044174712 0.7200299 -0.569591 -0.501292 1.3696395 -0.8980089 -0.210104 0.5168723 -1.5173633 -1.5188531 -1.6388457 1.1007154 0.39286637 -0.4764173 -0.3523539 -0.9029941 0.29003644 -0.028504737 -0.04549031 0.70401204 -0.5642082 -0.5464112
我 -1.1043335 -0.79574794 -0.64065415 1.5326052 0.0068203425 0.8435883 -0.25520858 -0.42830586 -0.25173825 0.6263761 -0.44015765 0.7201694 -1.2307339 -0.040706106 0.62496567 -1.0484463 -0.65340954 0.031926718 -0.4107615 -0.42374 -0.10002862 -2.2499928 0.08270239 -0.7244596 0.73057914 -0.36882526 0.59077394 1.7528847 0.8779617 0.3945084 -0.21404839 -0.38815463 -0.7473549 -1.8291643 -0.2195665 -1.6285524 -0.16919328 0.41560668 -0.29632688 0.41490296 0.4453947 0.36830062 -0.4148958 -0.8066161 0.3861183 0.21300234 0.41355172 0.151206 -0.080459744 -0.2531476 0.36035734 0.1943928 -0.14429662 -1.1932344 0.2498501 -1.2305257 0.8107447 -0.13119455 0.82147133 0.058969915 0.14358118 -0.26672116 1.19836 -1.358473 -0.11855856 0.38138908 -0.24293952 0.5137705 -0.53345233 -0.014143943 0.52195704 -0.5357546 0.5883687 -0.43999067 -0.011211418 0.30037114 0.4363435 -0.27125007 0.024451016 0.28333536 -0.042067688 -0.5427747 0.14236805 0.052278485 -0.8884863 -1.2326565 -0.014363074 -1.2389596 1.5803844 0.2257703 -0.5722705 0.3592268 0.0065391227 0.44601646 -0.33028248 0.16743334 -1.6012974 0.31071788 0.4911001 0.4767212
还 0.116799116 0.5877843 1.9455274 0.5409203 -0.5009427 -0.19377768 -0.07607581 -0.1862718 0.40427458 -0.7315159 1.6333724 0.58265024 -0.5829928 0.6219461 0.6914214 -0.8386112 0.87647396 1.9620692 -1.0392696 0.5473981 -1.0120245 -2.0112524 -0.912546 -0.2835438 -0.87957436 0.55320185 1.2248248 0.94575226 -0.13768514 0.013626514 1.520742 -0.19496149 -0.61985224 0.51664615 1.2400346 -0.436647 0.36111587 -0.3955721 0.108880155 0.7283663 1.0088608 -0.4278685 1.6082251 -0.8463022 -0.20745207 -0.22888876 0.6673296 1.6516857 -0.6160313 -0.8071287 0.097328655 -0.525317 -1.0145323 -1.6285949 -0.44173667 0.5222819 0.13212936 0.24726936 1.4039364 -0.2745358 -1.0512228 2.454584 -0.13926314 -0.4844689 0.83929306 -0.16727714 0.6161952 1.455939 0.023490533 -0.6806288 1.047876 -1.6441416 0.6314261 0.20397584 0.07702193 0.66204304 1.3414513 0.68450564 -2.3048182 1.802644 -0.47210336 0.11650695 0.27676275 -0.9840978 -0.41773424 0.26991114 -0.9088846 -0.93096364 -1.056099 -0.45001712 -1.4679114 0.09144115 -1.2685347 -0.5874765 0.059888817 0.40458623 0.5285111 -1.126493 -0.75451785 0.67928565
， -0.033850502 0.23079859 0.9946187 -0.37727472 -0.5141099 0.5642697 -0.016457126 0.1471668 0.20759271 -0.040238503 1.0362226 0.8901757 -0.71939784 0.3955368 -0.047131527 -0.73605436 -0.30448896 0.7477903 -0.09260689 -0.7465122 -0.21926413 -1.0244435 1.164707 0.08701655 -0.538167 -0.3971994 0.059273675 0.2474948 0.77176315 -0.53060097 0.6893591 0.26549944 -1.1143776 -0.81743234 0.730088 -0.9030222 0.6476985 -0.40193194 -0.6605823 0.40370235 0.6834803 -0.16684403 0.24205789 0.21888348 -0.510568 0.67379296 0.21511124 0.9442511 0.113391854 -0.51355296 0.022897922 0.027203765 -0.04033809 -0.7428752 0.0040615667 1.5999168 -0.18469134 -0.5454813 0.71422505 0.5019516 0.15299931 -0.13448617 0.50449085 -1.3874437 0.82313967 -0.71754676 -0.1172328 1.2092843 -0.6516077 -0.58810085 0.5309941 -1.2415507 -0.5551026 0.65752214 0.07207895 1.1075948 -0.2189166 -0.8370971 0.31977332 0.6252977 0.49092662 0.54032075 -0.041832585 -0.06641688 0.73643976 -0.32821923 -1.0123856 -0.9485398 -0.91519517 -0.86610705 -0.46818653 -0.43339434 0.066559054 -0.72472787 -0.23544091 0.5240046 0.5800871 0.53472364 0.22548565 0.261639
不 -1.1412238 -1.9457425 0.4198493 0.9451824 -1.2252207 1.0867914 -0.4084894 -0.43067706 -0.16545337 -1.1177739 -0.48938167 -0.71093255 -1.2349538 -0.5625296 -1.2249511 -0.013064893 -0.026973084 -1.0125452 -0.07041706 0.67243594 -0.36386105 -0.30600134 1.4588836 0.774857 -0.6798735 -0.09820925 0.9224144 -0.7324107 0.14568035 1.7881447 -0.35323 -1.0982853 -0.347039 -0.22425228 0.04621944 -0.85350704 -0.33171934 -0.64383346 1.3432295 0.18163458 1.5353115 -1.6858219 0.37051144 -0.78590834 -0.7025298 0.25770476 0.08717759 0.72501606 -0.7934771 -0.37037235 0.42913625 -0.8948807 0.6890906 -0.22235061 0.5270261 1.1800476 0.031575166 -0.5173486 -0.04097494 -0.6146674 -0.38044637 0.4120381 1.2501694 -0.8038917 -0.14331894 -0.052573893 -1.0460656 0.024052769 0.7299185 -0.7923758 0.040772233 0.048994582 0.7324872 -0.8789252 -0.34530264 0.65630835 -0.49343905 0.41769955 0.0048985993 -0.0063844295 0.5357328 -0.24770127 0.7930012 -0.038914416 -1.6565819 -0.3036289 -1.6270334 -0.17755947 -0.023862716 -0.26610434 1.9403162 -0.22025865 -1.4721199 0.81484485 -0.21037973 0.52562124 -0.6818114 -1.6896889 -0.34318855 -1.3460538
借 1.7260865 0.06111313 0.7601602 -0.049824387 -1.6097127 0.7626585 0.09849873 -1.3651322 1.2902911 0.580706 0.696221 2.2193844 -1.176782 0.37180865 0.8712639 -0.11600116 0.8867487 1.1861019 -0.6762153 -0.49917886 -0.4558956 -0.6407583 -0.44107386 -0.98208904 -1.1758053 -0.09153295 0.19140415 0.7890117 1.1855367 -1.0170559 1.5330371 -1.0444272 -1.7671876 0.95231444 1.3950937 -1.4992715 1.2378769 -0.10937815 -1.1758049 0.8953627 0.40372914 -0.008189875 1.088058 -1.3923217 -0.4701583 -0.1287143 -0.13483222 0.9837932 -0.27813187 -1.0761852 -0.2299068 -0.45453787 -1.3413872 0.445901 -0.7038682 0.23540561 -0.55174774 -0.08008412 0.21366227 -1.9340014 -0.9219878 0.6777888 0.8082356 0.41163936 0.3728881 0.44431764 0.048691005 0.93650305 -0.5929884 -0.75834376 -0.80389637 0.502775 1.099979 1.2024033 0.8307046 0.3050271 0.68641794 2.1704507 -1.9345379 0.8542263 -0.6835726 -0.1750844 -0.013470109 0.68503475 -0.67055875 -1.159728 -0.10673459 -0.7798247 -0.6547621 0.94597095 -0.96994036 -0.5430498 0.8012464 -0.5107676 0.12988105 -0.52508706 0.8717012 -0.7076487 0.20668964 0.7426802
什 2.0237281 -1.9373225 1.7561871 2.2113438 -0.3851551 1.9501759 -1.0076053 -0.8723516 0.49589875 -0.33219907 1.1401792 1.5073276 0.2677338 -2.2556996 0.5678731 0.48416296 0.8960814 0.3466275 1.1021041 -0.7903982 -0.25338766 1.8188281 0.98092824 0.60481346 -2.6594462 1.1381754 0.25327295 1.1500026 0.02676481 1.7913076 -0.9540571 1.2711636 -1.9286178 -1.1658645 -0.13112868 -1.6520575 -0.0017575576 0.72582895 -0.6765895 2.0870285 0.39198786 1.1025395 -0.027070187 -1.0045009 2.0540206 0.32035375 -0.44275892 -0.54323256 0.8928645 0.12409903 0.009067597 0.86198837 0.65907884 -1.4762706 -0.31041935 1.4481121 0.064641625 1.814982 0.75511986 0.5805583 2.086951 0.64964694 -0.5931771 1.9966809 -0.9081353 1.0336415 -0.7101841 0.63180923 -0.3612274 -0.9740908 0.5103954 -1.6221237 1.0728486 -0.6824923 -1.0598097 -0.32359692 0.37573758 1.0424088 -0.44560552 -1.0259393 -1.8766046 -0.5173473 -1.3613011 -0.20444417 0.5736639 0.611463 -0.50780624 1.3118429 1.7786239 1.4462894 -0.37675884 0.4882206 0.029586168 1.8775764 -0.6773527 -0.19930565 -0.14529659 0.72143686 0.66323704 -0.23287623
？ 0.91805595 -0.25458387 -0.089372076 -0.373604 -0.26482406 -1.0238441 0.29398677 0.029425524 0.18165591 -1.0359427 0.42348406 0.13778728 0.2005815 -0.63378835 0.09065773 0.154557 -0.49668613 0.8929194 -1.076815 -1.0075239 -0.08464403 0.5555752 0.86528903 0.2512838 0.12321165 0.7637335 0.4125461 -1.0652169 -0.59706664 -0.41257542 -0.23429504 0.18113555 0.1859431 0.8966089 -0.14013177 0.35284555 -0.24223591 -0.42008057 -0.2839636 0.45377943 0.36950776 -0.43559745 0.05130017 -0.3201465 1.5620214 0.08349659 0.34858087 0.39027542 -0.28710034 -0.25976947 0.43120682 -0.7655905 0.823708 -0.20183381 0.23154333 0.8341379 1.206091 0.47734523 0.25771374 -0.24405837 -0.9398362 -0.78363067 -0.70395595 -0.41750467 -0.007962726 0.020366026 -0.82502884 -0.09162598 -0.048632964 -0.7503867 -0.01937165 -0.22295605 -0.25523722 0.5306887 0.79513335 -0.42793572 -0.0896568 -0.4310417 0.007424633 0.22463615 0.56975895 0.062019482 -0.49775982 0.69245625 -0.8186273 0.7171936 -0.57705635 -0.58424246 -1.0364459 0.27803117 1.2663261 -0.038579058 -1.2181677 -0.29102153 0.5715242 0.5547737 0.5506213 0.58339494 -1.455924 1.0954022
微 -0.45083946 -1.7128929 -0.02416396 1.5262431 -0.5738402 -2.0110946 -1.2257861 1.0181011 -1.2848307 -1.5436137 -1.472801 0.37823015 -1.1446987 0.7161764 0.7565127 0.9299338 0.5637178 -1.0143696 0.08190808 -1.6374506 1.0941801 1.0953526 -0.20922025 0.21985258 -0.5538687 0.14380802 -1.4723455 1.4166584 -0.6967353 0.88647246 -0.09766999 0.25889018 -0.36374795 2.3907497 -0.40674046 1.4820527 0.53305775 1.284658 -0.71958524 2.3321366 1.6392212 0.9032397 -1.2030505 -0.24941999 -1.2436668 -0.6497108 -0.30569318 0.162388 0.50109464 0.7827045 1.9760295 0.46539894 0.19098622 0.20914045 -0.56139505 -0.23228115 0.51974314 -0.7153698 0.40744516 0.74409544 0.2442876 0.3460012 0.69916326 -1.404707 -0.68795896 0.54871255 -1.2310132 -0.29465547 1.1353129 -0.5607924 0.8000753 0.044089027 0.72063875 -2.030992 2.1799212 -0.8354211 1.3615879 -0.5438565 2.4511185 -0.3249629 0.80999285 -1.7873031 -0.40894416 -0.100413054 -0.52541673 -1.9545351 -1.3510689 -1.4740803 0.98214513 1.6265603 -0.916411 0.37034914 0.48071727 0.42591068 -0.13044322 -2.3764324 -1.2833501 1.1682887 1.0686508 -0.059118006
的 0.884017 -0.30025676 1.3026607 0.28792685 -0.26415572 -0.20178533 -1.648346 0.08439454 0.40692025 -0.5569999 0.26872066 0.22401789 0.6091377 0.55744183 0.0010753704 0.14952672 1.1701417 1.1989226 -0.74985147 0.39176393 -0.48585865 -0.8165962 -0.19226904 0.18192397 -0.7008984 -0.19390658 0.93113995 -0.6381626 1.010038 0.33621654 -0.35635695 0.90008444 0.45453486 0.5470712 -0.18534486 0.54316676 0.7968178 -0.31953746 0.09074849 0.52784276 0.2700604 -0.26537672 -0.6422599 0.10335607 -0.30234396 -0.30216658 -1.1398275 -0.28752154 -0.4946533 1.1765566 -0.17240252 -0.20448394 1.1826367 -1.1441296 0.5110548 0.12836733 0.036147345 -0.2036154 0.020914776 1.2114482 -1.0914475 1.1117024 0.26750734 -0.19602144 0.33148068 -1.2919616 -0.21235794 -0.60529524 0.69380647 -1.4876096 0.13915034 -0.7699001 -0.8486889 -0.26486894 0.0798763 0.43848416 -0.120201044 -0.12202471 0.51720536 0.0010169396 -0.08719179 0.31925806 -0.79078543 -0.1500156 -0.21434276 0.1712023 -0.23170531 -0.7620338 0.39094082 0.021063974 0.9676608 0.6017909 -0.41238102 0.38473642 -0.059155196 -0.66818804 0.4170788 0.17051747 0.57455015 -1.0442128
贷 0.6074521 0.21586142 -0.938378 1.3519995 -1.1993397 -0.06305942 -0.5361072 -1.1523907 0.68770397 0.14107466 -0.4433966 0.54574585 0.09496048 -0.84333235 0.51336205 -0.45991132 -0.073435806 -0.94558805 0.5724322 -0.5715353 -0.37413028 -1.1261388 0.17427912 -1.4860469 -1.9766438 -0.49302003 0.55637574 0.4712054 0.21723478 0.5513723 -0.14012122 -1.4739376 -1.2079309 -1.006269 1.1461865 0.43065435 0.07675907 0.28308445 -2.3394208 -0.9683262 -0.5415378 0.021060761 -0.08634981 -0.9617738 -0.44221255 -1.1825794 0.5350262 1.9019489 0.027807947 0.17869192 1.5566915 -0.07501149 2.1280396 0.33607826 0.06667475 -0.85689485 0.05126565 0.6663526 0.5106537 -0.0713665 -0.41384855 1.4959242 0.41052806 -0.09264627 -0.58887774 0.7753917 -0.49326453 0.27271783 0.05244794 -0.54702026 1.1040103 2.5575368 0.86796343 -0.5472612 0.12383243 0.72274995 1.2355367 0.41170585 -0.8661436 0.22282057 0.072271936 0.830012 -1.0312834 -0.587964 -0.332179 -1.5965884 -0.2093674 -1.4441735 1.6790187 0.6473296 0.6914355 -0.46080452 0.1504871 0.6978818 1.063858 -1.6806076 -0.8859609 -0.065284334 -1.830912 0.7667506
了 -0.43751085 0.339475 0.25056502 -0.5811598 -1.1589689 0.41080555 -0.61101264 0.7733158 -0.2992938 1.0587077 1.0298257 -0.16119294 -0.93886185 -0.09701358 -1.2814145 -0.9884515 0.024300033 0.22893983 -0.35406363 0.08306374 -0.31648645 -1.4261962 -0.4866253 -1.3605899 -0.41778153 -0.54661375 0.2407793 0.5367505 -0.325964 -0.59200835 -0.39578593 0.19872662 -0.43527767 1.0103508 0.49911273 -1.4182976 -0.38389575 0.6511087 1.5935863 0.86493313 0.505393 -0.8757746 1.044188 0.93020827 -0.60865855 0.22666307 -0.15597217 -0.6150506 -0.6877308 -0.8029395 -0.05334121 -0.0071365517 0.26158327 0.39253065 0.22935541 1.4103523 0.8387214 1.4583044 1.1576527 1.9946338 -0.40748346 0.7024087 -0.0019814703 -0.70156175 1.2558229 -0.4416305 0.46137276 0.90806323 -0.19395834 -0.35517493 0.035586502 -1.0684891 0.113136716 0.8227321 -1.5602126 -0.17122911 -0.37364087 -1.2120732 0.064762086 -0.7467138 0.6370163 0.049216874 0.88779294 -0.7640111 -0.3189256 -0.2903518 -0.26173872 -0.6357876 1.5968466 0.20910914 -0.2103275 -0.9495519 -0.15004808 0.58123535 -0.07860192 0.00962134 -0.4116806 -0.3721094 -0.87569964 -0.35941926
为 -2.0414479 -0.14174767 0.1316432 0.84005827 0.3337993 1.6490717 -2.9385858 -0.9072345 0.066349894 0.05844269 0.4417719 1.2937368 -1.2815454 -0.82853895 0.61322963 2.0098076 1.1507004 0.42156613 0.10136173 -1.845397 1.3462375 -0.13850099 0.05943611 0.8837615 0.09657395 0.6530853 0.67592674 -1.528275 0.9260035 0.883787 -0.43861553 1.229814 0.9542498 -1.4220607 2.64727 -1.2780482 -2.4476588 1.4220625 -0.29432857 -1.1600516 0.8893561 0.45002306 0.8765308 0.35413063 -0.06253823 -0.2931829 0.05476863 0.9461338 0.69618803 1.0941074 0.07934806 1.6757591 0.40296036 0.95254236 0.6547977 -0.5885164 2.3919294 0.6273349 -0.6904002 0.46628153 -1.0463189 1.0061809 2.9477408 0.13357385 0.6603214 0.32352665 0.8120569 0.274793 1.0878613 -0.967697 0.75638723 -1.4127905 -1.7271963 0.23556289 1.0426531 0.2675319 1.4029181 1.7304617 -0.48305175 -0.85626906 2.1778831 -0.6918985 1.4326652 0.59767336 0.985261 -0.41208065 0.18003565 -0.18646741 -0.16200982 1.0443553 -0.18949486 1.8936143 1.984291 1.7583867 -0.76672 -0.22391364 0.10680738 0.65713865 0.09791094 0.60410404
怎 0.50865626 0.07439327 -0.075276874 -1.4370589 0.9633398 0.6569522 0.6052359 0.3553592 0.67068887 -1.8205425 0.7917143 0.24957211 -0.95087576 -3.3750362 1.4064165 1.6040365 0.40635353 1.1690001 1.1719744 0.61463195 0.96486837 0.7986738 -0.67711204 0.8461342 -0.11565244 0.73753905 0.8949694 -0.43969315 0.6239171 0.17146954 -1.1816909 1.1649841 -0.79032534 -0.49468645 0.22296953 -1.5764526 -0.6656819 1.7984531 0.12725264 1.9243675 2.1473002 0.17765741 1.6346766 0.7680495 1.1713983 -0.10925808 0.25538978 -0.44813952 0.8281002 -0.3728604 1.9974928 -0.47625434 1.3218763 -2.0930321 -0.6728962 0.8343267 1.5013672 1.6868335 -0.7468687 1.8288071 0.71195114 0.9569952 0.4493464 0.67397684 -0.15511401 0.3505783 -0.82405186 1.4941856 0.9850168 -0.34088323 -0.48803687 -2.2483675 2.0062466 -0.0150659215 -1.8083951 0.10571243 0.7343039 0.5155071 0.09747229 -1.2223543 -0.2703435 -0.3824464 -1.4571933 -1.5764669 1.2647702 0.64352417 0.5990753 0.5007574 1.7982876 0.42261368 2.5310974 1.2493304 -0.33267123 1.4801921 -1.0316014 -2.0087116 -0.23896419 0.91853136 -0.48833027 1.1687671
是 0.24638343 -0.024040764 0.50053036 0.68998915 -0.5979378 -0.19537446 -0.7591082 0.4004843 -0.9839059 0.5981776 0.3614471 -0.16296597 -1.466389 -0.60953933 -0.98536056 0.56076854 0.21619467 1.401371 0.008810478 0.48875457 -0.5665277 -0.1046776 0.04611943 -0.9327765 1.1459048 0.61578506 -0.20491387 0.8066978 1.7104273 -0.6991839 -0.24883425 -0.15641142 -0.057138845 0.4366363 0.90521884 -1.1647211 0.59681916 -0.29005364 -0.8259022 0.06516651 0.41222286 0.5296407 0.52367616 0.75464004 -0.60766846 0.2521738 -0.0034020666 -1.5048331 -0.5804031 -1.3857304 -1.1839943 0.10605192 0.6151574 -0.37128854 0.30333477 0.19965461 0.41845745 -0.7153021 0.26423717 -0.15347327 -0.5467063 0.37204203 0.945028 -0.84011537 0.52233404 -0.5291886 0.24191637 0.77181035 0.67312825 0.2432999 -0.071887195 -0.48364943 -0.45948458 0.006070371 0.9501132 1.2323691 -0.9389162 -0.48328617 -1.4775319 -0.35121793 1.0634396 0.6043958 -0.93920714 0.036733776 -0.94267243 1.5367554 -0.6420448 -0.49737883 0.5213876 0.49526834 0.60515386 -0.6743491 1.2301986 -0.6519689 0.20097706 0.50514966 1.5113313 1.0440509 -0.8178284 0.1924926
没 -0.5291345 -2.2046041 0.32466772 0.99775714 -0.7138673 1.5585897 -0.5398171 1.1664312 0.2893031 0.99282944 1.1512322 -0.42005455 -1.1691898 0.8438154 -1.6876029 1.7686207 -0.75405884 -0.45123175 -0.9155137 -1.3119686 -0.09185833 -0.23289748 -0.14628077 0.30425832 -0.18651363 1.1674789 0.5610443 -1.1080488 1.4116497 -1.2607917 0.16525604 0.32408428 -0.33371764 -1.4283649 0.61306447 -0.5530111 -0.7449286 -0.26689485 -0.75270987 -1.1130742 1.3826799 -0.57468677 -0.4993332 -0.784229 0.3978372 0.752454 -1.6757259 0.7917773 1.1181221 -0.15592971 -0.9540085 0.029531322 -0.05748697 1.209919 0.8198228 0.81971395 1.3768742 -0.4599223 0.6627022 -0.059202794 0.85117733 1.2067151 1.455313 0.52523077 -0.2826804 0.80712086 -2.030132 -0.32675782 1.0541973 -0.77652895 0.2694921 0.87328863 -0.24689965 -0.37127012 -1.4417684 -2.4199297 0.46195054 -2.3977416 1.3596736 -0.9973993 -0.48996815 -0.7287392 -2.2185428 -1.9730318 -0.6009942 -0.94964397 -1.6983091 -1.1477503 -0.8867259 -0.18162249 0.9300303 -0.21127349 0.010896977 1.7097534 -0.82937616 0.770502 -2.008845 -2.3744698 -1.6514595 0.5265915
有 -0.3919659 0.41395324 0.8025146 -0.119754165 -0.87816125 -0.5568938 -0.7709179 0.20419452 -0.5912196 1.1484845 1.3609015 0.0068376907 0.25199676 -0.42282307 0.9081601 -0.3850564 0.64486015 -0.7513468 -0.7862476 -0.43567 0.47783127 -0.8481599 -1.2453893 -1.573648 -0.12408318 -0.10610109 -0.20216829 -0.3686197 1.4316393 0.38283944 -0.14752485 1.152924 0.68545943 -0.6175199 0.12240492 1.5296704 -1.5443319 0.843949 0.8797874 0.7904476 1.1263254 -0.27129838 0.9126166 -0.5817319 -0.028820839 -0.8037586 -0.2788441 -0.09131563 0.9629684 -0.08988168 -0.631308 0.70037174 0.37680843 -0.2224404 2.1320646 -0.20651013 0.90501 1.4559964 1.3519107 0.9112067 -0.53977156 -0.4243883 -0.7049166 1.1905522 0.12221749 0.10370165 -1.5304545 -0.73203474 1.3753353 -1.5508628 1.0698515 -1.0539556 -0.37930778 0.47407496 1.5787832 0.5014925 0.43773285 -1.1833545 0.08213966 1.1793402 -0.25337926 -0.105546385 0.1610274 0.19209264 0.06575351 -0.28733265 -0.70512146 -0.5261735 1.6275027 -0.464308 0.48592082 0.6955708 0.7767544 0.3842551 1.6719224 -0.42208326 -0.81814474 -0.23833285 -0.023076128 1.0680944
0 1.4681811 -1.3609418 0.81610787 1.7256182 -1.9898517 -0.7046253 -2.3078775 0.06264694 1.3747216 -1.1667974 0.7541247 -0.025622725 -1.6160107 0.45488036 0.19207416 -0.8719409 0.21569017 3.6938722 1.6443796 0.6555552 0.15970802 -2.5914605 0.96786565 -1.4557089 0.33930692 -1.1067146 -0.43032354 1.3777344 2.1005342 -1.7253809 0.8657305 0.54185367 -0.39502305 1.0255038 -0.20436636 -0.47839987 0.5058727 0.46189007 1.7617391 0.16388747 -0.8279596 0.35185912 1.4820217 1.0818328 -2.0461802 0.5428003 -0.36704126 -0.71513426 0.55227894 -1.3757772 -1.5452571 -1.1788071 -1.3755469 -0.080087736 -0.34105211 1.3039478 -0.44212532 -0.24856977 1.79218 -1.2547387 0.8033941 1.1619656 1.4446687 0.52265024 -0.04448009 1.4924078 2.0106423 1.4981335 -0.08303192 2.0315847 1.3384838 -0.9917268 0.685883 1.7076409 1.3610059 0.51180834 -0.8898346 0.3369628 -1.8340349 -0.09965523 0.45264217 0.6934734 -0.42485204 1.0177958 0.8054069 -0.006463493 -1.0502989 -0.5854639 -2.7913067 -0.7587867 1.4131488 -0.14686349 1.1657039 0.61221886 0.047045913 -0.29364288 0.14964737 0.9994053 -0.7030458 -1.2072039
粒 -0.7608593 0.16834596 0.07794987 1.2388587 -2.566678 1.2095143 0.05796538 -0.40077865 -0.7024998 -0.936372 -1.3444448 0.9908778 0.5325098 -0.55224067 1.4123628 -1.0008603 0.23811181 -0.44875005 -1.0168906 -1.1451467 -1.4499329 0.09882121 -1.7928214 -0.84482175 -0.23629028 2.0209458 -0.07761249 -2.6534984 0.22372971 2.486432 0.46191746 -0.93597025 0.7627555 -0.6385665 -1.0599953 0.49717513 -0.94810057 1.2344248 -0.31259894 0.78410137 -0.16549145 1.4057837 -1.9389458 0.10266895 0.3353727 -0.22748615 0.25814533 -0.46845722 -0.11911734 -0.09923108 -1.785728 -1.388141 -1.7038574 -0.616412 0.31417534 0.9682924 2.113699 -0.33571374 0.7465914 1.6410795 -0.79920846 -1.314222 0.28789607 -1.4687327 0.6693073 2.8292575 -0.5893874 -0.46687257 -1.3148708 -1.0424162 -1.259615 1.2715044 1.28354 0.39549556 -0.40484777 0.066828385 2.5310555 0.87392455 1.6217258 -0.5928429 -0.6162554 1.8034878 -0.8113469 0.7859194 0.1871354 -1.3351674 0.9000371 -1.5192022 0.8309224 -0.65262985 -0.023957789 1.4787371 -0.36018544 1.9892654 -0.9513073 -0.727216 -0.8464561 1.3658193 1.145633 -0.047363833
可 0.40811473 0.692113 0.320649 1.422915 -0.25420427 0.5396443 0.087378964 -0.35012162 0.74731266 0.47225732 1.3040324 0.5717833 0.12659416 0.78092605 0.79228055 -1.1135596 -1.1940104 1.9272729 -2.1641657 0.8551788 -0.48939696 0.14511621 -0.84406143 0.6889846 -0.8133872 -0.9616658 0.048233215 -0.006200983 -0.8224846 -0.898782 -0.006393166 -0.3289013 -0.42661878 1.2444519 0.6340065 -0.9348571 1.5993398 1.3289931 0.8676568 -0.06262948 -0.85755396 -1.9519889 -2.561498 0.25083685 1.6627766 -2.1105316 -1.6139486 -0.86105955 0.32265863 0.79726744 1.466174 -0.4079483 -1.4667463 -0.1460889 -0.43349156 1.6713121 1.2567059 -0.14538874 -1.2427032 0.2789931 0.08816167 2.06219 1.4419478 -1.6831038 -0.45498818 1.7933158 -1.3316697 -1.2343998 -0.96987516 -1.2761685 0.73303396 -0.9851845 -0.15826319 1.9391493 0.75211406 0.216972 0.091720186 -0.10584424 -0.63873243 -0.48960307 -1.6857978 -0.06417206 -0.2310317 -0.5237927 0.21549062 0.50183487 -0.7493504 -1.8258874 -0.56131965 2.529409 -2.2994156 -0.95588315 0.41789562 1.6753355 0.8993286 -1.299641 -0.11732961 0.30799258 -1.1772752 -0.00035608886
吗 -0.23886096 1.1729903 0.8674644 0.4168562 -0.4272717 -0.0226012 1.3208913 0.14310494 1.3282586 -0.5191827 -0.5659476 0.39958358 0.06894321 0.032476265 0.041260038 -1.5720632 -0.108167626 -0.6510181 0.9937976 1.9990592 0.059258908 -1.0745722 -0.33891895 0.5375081 -1.4748263 0.7015736 -0.9495724 -0.23434632 1.0490375 0.9799152 -1.6048099 -2.0376062 -0.6363538 -1.1056416 0.4007298 -0.32756364 1.5372531 -1.6008582 0.05511227 0.5304044 1.7232585 0.17293 0.3775156 -0.42910987 0.10331335 -1.0127679 -2.527317 -0.26223406 0.37802818 0.2042424 1.7327614 -0.3730928 -0.7892543 -0.5950866 0.22164966 0.500544 0.54889816 0.43383107 -1.1933013 0.28931886 -0.6712329 0.31658712 -0.2143748 -0.7955212 -0.12189982 0.56186575 -0.8110117 -0.11157265 -0.22349404 -0.77260625 -0.8594022 -0.26189694 0.043171678 0.37027654 1.1338258 0.32560015 -0.16560465 -0.8427305 0.09541812 1.2424779 0.6718258 0.12560385 0.15172419 -1.7381645 0.16834396 0.71872133 -1.3538815 0.32170218 -1.5547118 1.1534932 1.9126737 -1.0026925 0.09409617 0.47517395 -0.6979685 -0.14505321 0.35095793 -0.9606531 -0.28069985 -0.2208382
一 -0.19760537 -0.18773304 2.4378223 -0.5071337 -0.106498264 -0.34520152 -1.3334467 -0.08167896 0.73262656 -0.8646251 -0.22503242 0.7998494 1.7341018 1.3409469 0.6018392 0.18074614 0.12819968 1.0296942 0.05793243 1.7630217 0.5428072 -1.0548546 -0.28901863 0.121518165 -0.34959182 2.4612586 -0.27051073 2.3845456 0.6888464 -0.45662713 -0.16776684 0.32472035 -1.8135363 0.21434921 2.9594014 -0.6458199 0.8472644 -1.5201844 -0.43000144 2.5959606 0.6002985 -0.62282217 -0.86548585 -0.76525503 -0.5675823 -0.6803538 0.6198445 -0.19657323 -0.33293983 -1.9434869 0.32330978 -1.1051388 -0.617693 -0.39527988 -0.031302895 0.7765257 0.14947174 -0.28595668 -0.06906556 1.3010614 0.13030785 0.38331276 1.2753793 -0.05657499 -0.044258587 0.41234896 0.33746287 0.09341484 0.17016765 0.43219084 -2.0363457 -0.8408085 0.06202929 2.0746784 -1.4530915 0.42773327 -2.8040788 -0.42784208 -1.6918576 1.2867253 0.9927226 -0.5388733 1.90207 0.58058965 -0.6356163 1.1434377 1.6919074 -0.31005356 0.44257942 -1.4154501 -0.58532935 -0.12320588 1.6180819 -0.0017044634 0.25166863 -0.86999655 -0.26456064 0.4311359 -1.3701308 0.54868144
以 -0.5411597 -0.5537505 1.8231095 -0.6919984 -2.1059844 -0.25462982 0.8235077 -1.0707269 -1.5638975 -0.2980842 -0.20093212 0.03781652 1.3298095 1.0531996 0.7607705 -0.9334065 1.691029 -0.39389434 1.2290074 0.84217286 0.7178011 -1.1738963 1.0576835 -2.3659105 -0.7727468 0.44237423 0.14271294 -0.061831985 2.5857856 -1.653997 1.2001983 -0.613965 -1.4841101 -0.6407641 -0.32067388 -1.5352149 3.0906222 -0.4754212 -0.11516296 0.62648183 0.8555175 1.1480169 1.6249619 -3.2453747 0.11888019 -1.6636789 1.4387782 0.84681946 -0.20516104 -0.70574915 0.73103213 0.5769869 0.07972787 0.40095887 -0.90379316 0.24040058 1.9793475 1.7069309 0.7836961 1.3687763 -0.7504379 1.6213644 0.35954353 0.3320674 -0.019316385 -0.7311705 0.42559913 -1.307317 -0.8322856 0.8730466 -1.4636598 0.37305745 -0.4229836 -0.4872169 1.2625971 -1.6948105 1.6534699 -0.6924009 0.3097476 -1.1481782 -0.17358622 0.35199428 1.2468016 0.044227146 1.0047467 0.2343012 -1.1742313 -0.069006726 0.2647988 1.3782434 0.63489974 -1.0147022 -1.1894109 -0.6633935 -0.64838755 0.5793647 2.1556811 -0.13933332 0.57589626 1.0170615
能 -0.41604328 -0.09087635 0.9112096 -0.016974233 -0.7909883 -1.6557032 1.1615143 -0.13029568 -1.1424012 0.4067052 1.3049392 0.032901376 -0.60260385 -0.04180625 -0.22293018 0.43790427 -1.350096 0.5159582 -1.6776403 0.9304437 -0.68854743 1.4486755 1.1109647 -0.37426847 0.11580878 -1.0646552 0.761927 0.6390078 0.7250938 -2.0080044 2.4238632 -0.3585425 0.7542551 -0.075712696 0.7983123 -0.51469797 1.3290287 -0.45020542 -0.4148927 0.26018757 0.39468926 0.09169426 -0.16232857 -0.04750868 -0.00038769015 0.4157035 0.98327965 -0.68656826 -0.083532915 -0.74765027 1.1926821 0.06291101 -1.057246 0.709078 0.04829388 0.7197285 2.9499428 1.6654521 0.29027697 1.7695241 0.40100625 0.5457917 0.23288617 -0.47591937 -0.51652616 0.513165 -1.1186391 -0.22483204 -1.0362897 0.07171324 0.2355901 -1.3103207 0.21695985 1.2032928 -0.6292622 0.24038106 1.8119289 0.63993555 -0.3543009 -0.7405668 0.005123542 0.21961328 0.6342312 -0.2849204 0.7028402 -0.819184 -0.65691274 -0.9204688 0.97361994 1.7113038 -0.31336635 -1.1490926 -0.63241416 -0.42900333 -0.56202704 -0.29244128 0.405165 0.17109114 -0.56701607 0.22905508
多 1.8298212 0.26002684 -0.2003606 -0.9864818 -0.25888366 1.462177 -1.3950028 1.243637 2.2402124 -0.22893128 -0.5475998 0.117868416 -0.05279673 -0.036826637 -3.1841214 0.10195797 2.1886141 1.1624659 0.73050505 -0.18259786 -1.5415989 0.0053314385 0.37570077 -1.3935647 2.0339937 0.30157307 -1.1945199 -0.1703947 0.16611837 0.49470273 -1.2399645 -1.5589619 -1.9983786 0.30769452 0.49752346 1.6460007 1.0128638 -1.6603388 0.3044091 1.3478429 -0.36708826 -0.6269488 2.0133793 -1.9087689 -0.9975156 -1.4073783 0.02294934 0.14615744 -0.18369366 -2.6217704 1.5406964 -1.1117712 -2.315725 -0.7158356 -0.23634598 -0.66416276 -0.05117128 0.78118175 -0.41248503 0.5882652 1.0967624 -0.7513139 1.293364 1.1522884 0.730264 1.2841463 0.88690805 -1.5966341 -1.5656976 -1.5187759 -0.12079081 -2.487157 0.32665178 1.1801609 -0.076275945 -0.7504542 -0.9055866 0.33172888 -1.2556845 1.8495582 -0.012159708 1.1302454 -1.4225224 0.04157939 0.43411782 1.7694129 0.43678933 -0.7353434 -1.6666933 -0.16479959 1.7326465 0.13146448 1.2767801 0.17925759 0.4666603 -1.5336438 -0.7444037 0.4448779 -2.0337481 1.3114645
行 -1.0456924 -1.1115434 -0.77292436 -0.026908726 2.9419823 1.7787125 1.7632006 -0.26826814 -1.568436 0.93422526 -1.3571819 0.6380331 0.79659736 0.91109455 -0.88869375 1.1470857 1.192385 0.28922105 0.33497223 -0.10585374 1.7821914 -1.2906915 -0.1627268 -0.8430696 -2.059317 -1.5260526 0.23326722 1.5227896 -0.022056676 0.98524404 0.20727688 -0.02897623 1.8976309 2.160631 0.1548746 0.27769798 -0.72962797 -0.027662594 0.80188507 1.1651512 0.66754085 -0.18589875 -1.6072751 -0.23780726 -0.683894 1.195811 1.6239978 -0.13460709 1.01292 1.0468637 0.18176213 0.5724288 0.61653966 0.29476652 -0.70012015 2.0102918 0.9674172 0.25647324 -1.2811202 -0.6186839 0.6385977 0.057293013 -0.20134929 -0.48186362 -1.4542743 -0.7113349 -0.43876654 -0.70265335 -0.98979783 -0.29149896 1.0187495 -1.562668 -0.4001054 0.12945023 -0.30898857 -3.1060956 1.8226045 -0.45822504 0.7825878 0.90592945 0.74563855 2.9775085 0.473365 0.08779437 -0.12998752 0.8047761 -0.48524487 1.0601537 0.8148541 -1.135843 1.6397926 -0.83073044 -0.8325434 -0.46003836 -2.3494868 -1.0324198 0.9809538 -0.57917804 0.5940286 0.35846713
到 1.5726207 -0.11067935 -0.07152331 0.36236334 0.9762957 1.1678734 1.0886753 -1.1042377 0.64813125 0.57329464 0.8473316 0.6764106 0.35940465 1.0805731 -2.1695685 0.8978837 1.6160705 0.41108438 -0.36018008 0.48253453 -0.8110254 0.8571978 -1.24598 -0.2702101 -0.56607556 -2.015307 -1.3985139 -0.42808774 0.32878065 -1.6868473 0.66056323 -0.19746834 -0.21670577 -0.059188306 1.2167267 -1.3183277 -0.43760425 0.18667452 0.7166592 0.16245738 0.3434102 0.8359367 -0.069708385 0.39595938 -0.124862604 0.037930816 -1.7084658 -0.3477998 0.923478 0.78039837 0.5916266 -1.263673 -0.13763331 -2.1080747 2.3929386 -0.55697864 2.6209164 1.3245583 1.3635614 2.180252 -1.0540189 -0.34286228 -0.2684143 0.32245407 0.01775216 -1.103243 -0.8393973 0.20799652 1.2447124 -0.47693366 1.246128 -0.59708184 1.3133284 -0.37547737 0.07288801 -1.5240849 -0.3814602 -1.1840419 -0.2097885 1.9423743 -1.2772044 -0.99572414 1.0660348 1.5968009 -0.14604092 -0.13977031 0.5057878 -1.2028344 0.5925532 0.9866969 -0.14502911 1.5061542 1.1262883 -1.1492652 0.47521928 -0.08006847 0.2693233 -0.73001385 0.19661257 1.8001738
电 2.1624725 0.6930211 -3.1123798 0.24963985 -1.8095473 3.8096416 0.77109253 -3.042032 0.64424276 2.1510231 -0.9272608 -0.69423884 2.792178 -0.34046075 0.08478135 1.680116 0.2572749 1.1019849 -0.35989285 -0.5682077 1.6357409 -0.23159742 1.5105548 -0.49260077 1.6529375 -0.5567302 1.3721763 -0.37728372 -1.7894653 0.02545684 -0.2138695 1.2273421 0.68924856 -0.9323655 0.6920074 0.7465896 1.9125226 -2.3216035 -0.1819079 1.1457272 0.2838815 0.057156343 1.645449 -0.0899039 0.14496861 1.4914979 -0.53203267 -0.547302 -1.0753955 0.3481573 -0.54969966 0.64968795 -0.752391 -0.85104704 -0.055493556 -0.15406542 -1.7806585 2.2631898 -0.119893506 2.8837059 1.5843632 0.25914243 0.7621803 -0.41824344 -0.28672162 -1.8714529 -1.5192932 -0.6913759 1.4113417 0.3632318 -0.366607 -1.3340828 1.6682732 1.0783219 1.2352682 -2.1652994 0.09175518 -1.7936546 -1.1229631 1.1593226 0.8464163 -1.6945577 -0.77149177 -0.19597822 -1.7589937 -1.1172626 1.3697039 -2.2726953 -1.3287256 -0.51360506 -1.8259791 0.20192403 1.0603268 0.43916512 -1.2175565 -1.0949553 -0.956225 -1.8336407 1.5308083 2.308335
话 0.4863067 -2.501781 -2.3433952 -1.1840497 1.4147649 2.5037336 0.95292306 -1.215075 -1.8908774 -0.042076368 -1.0842088 -0.5194482 2.1364658 0.10561073 0.18549891 -1.3250743 -0.04273828 0.08645184 0.57946867 -2.0438676 -0.15795885 1.965033 -1.5101061 -1.2835935 0.035388507 0.79414594 1.3529868 -0.15888977 0.526953 -2.10284 -0.4286447 0.88752043 -0.962288 -0.6915929 2.9889605 -0.24904339 0.2044418 -1.1623287 1.8915789 2.2035375 -0.7739274 -0.9502403 2.0214264 0.20479196 -0.33038512 1.1399816 -0.25510225 0.30075952 -2.287307 -3.5508785 0.9786092 0.47227633 -0.7564175 -1.5867457 -0.94118476 -0.889477 0.8440976 2.682229 1.464234 0.6048862 1.1701853 -0.7139405 1.614634 0.64326924 0.7641126 -2.0692775 -0.5851764 0.013773253 -1.5435979 0.22207639 1.9945872 1.1062803 -1.1157056 0.377206 -0.95461977 -0.6659229 0.10344276 -0.6117228 0.9832929 2.4060526 -0.63556087 -1.3675945 -0.629195 -0.5622356 -0.7311664 1.5722128 -1.4866344 -0.5379683 -1.5029205 -0.062541775 -2.6209445 0.7217353 1.8506054 0.9208737 -0.60078067 -0.3793906 0.4414783 -1.6906769 -1.1787682 0.7924439
请 0.51347446 -0.4298026 -0.00959034 1.8611863 0.28011304 1.5771259 0.43068773 0.5410849 1.6985366 0.048806228 0.06696058 1.1194947 1.959103 -1.2962805 -0.06654449 -1.0868239 0.34701127 -0.082858965 2.8302486 -0.8193306 0.9514757 -0.5788255 -1.0049912 0.09172048 -0.76522934 -0.3417965 0.16349664 0.6638938 -0.5022369 -1.4600801 1.0639278 0.29387617 -0.10417139 -1.1825724 1.0920677 -0.66423607 1.392149 1.3926822 -0.98779047 2.2144167 0.39670828 0.44557843 0.21371225 -0.08784329 -0.8834553 -0.61371946 1.048741 0.587377 -0.2954766 -0.43212175 -0.7500725 0.057489693 -1.2356895 2.2341175 -1.2323815 1.2989718 1.8598679 -0.45381984 -2.391143 1.107994 1.3395956 -1.0577879 0.77620715 -0.43706775 -0.56158715 -0.8153079 -0.5270544 -1.4112743 -0.078009926 -1.9727169 1.4483892 0.09659417 0.46832177 0.9192119 0.8817632 -0.9015567 0.54617506 2.377581 0.14596094 0.309054 -0.592464 -0.110698804 -0.32342395 1.2409041 -2.5141404 -0.5979561 0.607626 -0.9384693 1.0457326 0.61711466 -0.11015745 0.2954332 -0.27852812 -0.28123754 2.5225012 0.2806963 -0.67899144 -0.5805944 -1.2617638 -1.0453376
钱 -0.9379078 -1.627498 -0.6243818 2.6006947 -0.66558427 -0.18371324 -0.50722206 -1.1711042 0.27523187 -0.31131643 -0.351124 0.7496523 0.53928894 -0.003928593 -0.21383797 0.7062672 -1.3715065 0.86583984 0.36368918 -0.15594779 -0.94075257 -0.8629476 1.0976386 -1.0304859 -0.42142358 -0.37696996 -0.4292043 -0.28191733 -0.50259805 0.17573424 0.33722636 -1.3532586 1.2210524 -0.90922594 1.2834306 -0.93957126 0.3297935 1.0792986 0.4623597 -0.017289994 1.795918 -0.14542145 -1.9445436 0.112008534 0.019935103 -0.055568762 1.1292583 -0.4029675 1.4824388 -1.3892272 0.4779558 -0.039977305 2.2107418 -0.7888383 -0.16625217 2.000798 0.7414825 1.9354063 3.1861424 1.3014247 0.6963281 0.85693026 -0.5626097 -0.8524653 -0.17489086 0.2639867 1.6508017 -0.00976769 1.8129343 0.13562332 0.039065473 -0.6516706 -0.5080402 1.6081355 -0.21697754 0.5092845 0.3550559 -0.9507592 0.8750019 1.8156381 1.4558735 0.5807368 -0.049925957 -1.1411784 -0.004481532 -0.21581142 -0.8162712 -1.2259411 -1.5322504 0.20501441 -0.3705969 0.65263826 -0.20302439 -0.22567984 1.0320181 -0.8580456 -1.0879424 0.8353183 -0.1022425 0.2650952
时 0.038879965 -3.2305963 -1.0541582 0.7813988 -1.4338331 1.0596255 -1.3028129 0.20690253 2.0424907 -0.89922154 1.3562145 0.62034196 1.0912172 -0.6592242 0.8684102 0.32512853 0.17444246 -0.045858853 0.7715006 -0.3497694 -0.91132814 0.6228273 0.47566602 -0.7951118 0.99683297 0.2791279 1.366115 0.4097849 0.19166955 0.686047 -1.0896753 -1.8446213 1.2703304 -1.3237519 2.8646073 -1.9936223 -1.3504592 -1.1469865 1.6604502 -0.27813488 -0.2742948 0.12377832 -0.7168444 -2.3960617 0.5073803 -1.6896994 0.7905429 0.16371882 -0.44333118 0.011581335 -0.22878388 -1.5544064 -1.0253773 0.7689468 -0.15997493 -0.13231617 0.95974576 0.9892485 -2.3724012 1.1004341 -1.5599483 1.7771049 1.1807683 0.0016258525 -0.25629643 -1.2375774 -1.1041044 0.08776102 -0.7125228 -0.58578897 2.1513994 -0.24074377 1.9909825 1.1077296 -0.28255945 -1.7971103 -0.47922117 0.4939899 -1.6192359 0.13091823 2.2801344 -2.6744168 -0.14085896 -0.03929152 0.85796833 0.20791 -1.7124029 -0.25398815 -2.1701612 1.3535603 -1.19172 0.5698808 1.7676557 0.46556166 0.7562909 0.45573547 2.665617 -0.4002865 2.2902546 0.8083564
银 2.0401688 -0.34110758 -1.2746845 0.040472146 -0.917191 0.36439025 0.027597135 0.9502138 -0.33875492 -1.6559079 -1.7184495 0.91895163 -1.072287 -0.25467116 -0.27233317 -0.84989643 -0.8695525 -1.4642133 2.2781837 1.4871633 -2.1156402 -0.0018505543 -0.24859212 2.250702 1.0969745 -0.8784424 2.46519 -0.8517649 0.16027373 -0.3741989 3.0611043 -0.81930625 -1.3373563 -1.165262 0.6043473 1.4246421 -1.1187263 0.52567136 0.77045333 1.1034123 -1.3788228 -0.9582477 -0.1724612 0.8731707 1.6280947 0.3821078 0.15770371 0.8965952 -2.4350493 -0.37450036 0.65848583 1.7056774 0.03995254 -1.4465146 0.7832872 2.070664 0.022700164 -1.2569294 0.29434428 1.6781148 -0.70963556 -1.2928245 -0.4258506 0.89117986 -0.95335394 0.66365474 -1.6277066 -1.3776941 0.9499294 0.7151154 1.4089377 0.49533486 -1.4918039 0.034019075 1.6337003 -1.8126745 0.7120693 -0.58372116 0.73654544 0.22390164 0.39867535 -1.5394721 1.7891159 -3.011865 0.632709 1.1183907 1.1648035 -1.0313429 2.832752 0.12113827 -0.33733222 -0.9000404 1.0822922 -0.6073261 -2.59363 0.7390693 0.50830156 -0.7466412 1.3695258 -0.86214906
额 -1.1340041 -1.2181087 -0.41777253 0.39092883 -2.3361754 -0.1356886 -2.0844193 1.4608088 1.8214091 0.15598226 0.32725766 0.15475091 0.28087804 0.91624415 0.2979652 -1.0845199 -0.3512895 2.0011287 0.19688962 -0.24639173 0.8257712 1.0533583 -1.0691769 0.2617725 -2.3140426 0.08880243 1.3470237 -0.79275846 -0.26929447 -0.7492634 -0.44887733 -0.63583094 0.9733059 -1.205714 -0.038830414 0.022180393 1.2421188 -0.47447827 -0.87974244 1.3345708 1.243056 0.53581655 0.79309964 -2.323061 -0.53701454 0.44244885 0.5624023 -0.72448784 0.9213997 -1.1093946 -0.7739062 -1.5895138 1.4181298 -0.022178622 2.056673 1.315129 1.0168542 0.17924999 2.3245997 -1.5741024 0.3705856 0.35516134 0.5872201 1.2263509 0.32786787 1.6553792 -0.0037130946 0.0130593395 -0.5507741 -0.32607996 2.0179486 -0.38765973 0.41089082 -0.6137207 1.6167542 2.3103065 1.8703641 -0.17482074 -1.8872527 1.0165722 -0.014800727 -0.30356434 0.89836955 1.1157875 1.7079182 -1.0354904 0.12201285 1.2615509 -0.21855526 1.9819068 -0.97041625 -0.98370725 1.9106964 -0.8316391 0.6478821 0.05403968 -2.334655 0.9780125 -0.5448022 1.6653566
提 2.3129861 -1.511827 1.6850728 -0.30093032 -1.0843272 2.6099324 -1.3961575 -0.5834418 0.80361754 -0.4301096 3.006593 0.8034091 -1.1887617 1.7667019 0.6530817 -1.4499477 1.1515608 0.9583121 -0.010007269 1.1159822 0.37495792 -0.22393827 -0.7830937 -0.96847725 -0.6866357 0.093648866 0.93738955 -0.39825076 2.1055694 1.2362401 2.0721195 1.7693762 -0.28631052 -0.68792677 2.3430674 -0.21284051 -0.663703 -0.7295752 -0.7853772 0.34233668 -0.3345942 0.035304673 1.912607 -0.5797582 1.0156726 -0.5270112 0.71900535 1.164456 0.5591949 -1.9117837 0.51226825 0.45534614 -0.084386274 -0.95119584 -0.5062857 0.1389191 0.58333606 3.3721876 -2.3443117 -2.0117278 1.6357877 0.95357925 -0.13202651 -2.7094772 0.16796316 -0.17579788 1.1741556 -0.839047 1.1464057 -1.1164103 -0.8793786 0.9024531 0.32864 0.09006083 0.40320414 1.1708311 -1.810578 -1.0906044 -1.548815 1.8210377 -0.06527978 1.2857767 1.5782963 0.23801261 -1.207221 -0.5351028 -0.48979464 -1.0284858 -0.76745695 1.0705667 1.0285616 -1.3125232 0.281579 -1.8659985 -0.5574361 -0.3880103 -0.7574528 1.703759 -1.0442929 -1.1686182
天 0.14121117 0.21941145 -1.5532672 0.6497433 -0.58164984 0.1708328 1.3349112 0.30068976 1.6273977 -0.2601121 0.7303591 -2.4965699 -1.8420665 0.46489242 -1.629941 1.8593473 0.5315454 1.4097052 1.6091548 -1.1072994 -0.998784 -1.5102657 0.052151408 -1.3249921 -0.30553898 0.057089273 -0.64612937 0.5407756 1.7154788 0.53959817 0.29536265 -0.8874474 1.3621999 -0.7958738 0.52722937 -0.40205845 1.697396 1.1389817 0.9767912 0.8847939 -0.8788678 -1.3274775 2.0296447 -0.09164096 1.2548271 -0.050873607 0.19617005 0.14778747 0.6372848 1.2076124 -1.0122366 0.49591658 -1.3081208 0.5360628 -1.2395014 -0.24123356 0.2275378 1.1420946 2.8061032 -0.8823406 0.58941793 -0.06432986 -0.1996827 0.4557694 2.084939 -2.5094492 -0.009880939 1.1443684 -0.34956178 -0.6972267 0.9409332 -1.3338908 1.784513 1.285335 2.0069866 0.49840233 -1.1196741 -0.67545766 -0.4266895 -0.07434798 -0.15098315 -0.01613158 -0.21180207 -2.0080755 1.108118 0.015954206 -0.2668922 -0.34290585 -2.662347 -0.21853311 -0.7742066 -0.7446205 0.3502528 0.49778494 1.641588 1.7584327 3.082764 0.21976146 1.0259023 -1.888024
息 -1.444967 -0.31664926 3.820061 0.09582506 -1.5967441 -0.10265563 -0.75130254 1.2301885 -0.16854961 -0.46127662 0.40455168 1.0535007 -1.1603172 -0.5514825 -0.74048114 1.3904967 0.47968745 2.3827698 -0.28042945 -0.32339504 -2.5501113 0.34067905 0.7278618 -1.4543557 1.4088023 1.444631 -1.8908813 1.2596914 0.5337116 0.14116926 -1.2026536 0.85987467 0.8097757 -0.36687386 -1.023658 -0.17839727 0.21663263 -1.9643061 -1.8000124 1.8439922 0.5230348 -0.19646184 1.1642965 3.182067 1.4551004 -0.52878845 0.97749573 0.13262549 0.6800877 0.2323251 1.6838113 0.95880747 0.2741153 -0.15135987 -2.5322604 -0.15072231 -1.2595937 2.0999837 -0.27576658 -1.9337524 -1.7418292 0.014734313 1.3907434 0.69331 0.023287658 -0.5146204 -0.05056544 0.072178654 -0.86297643 2.1789024 -0.5121744 1.2939909 1.6295975 0.27553698 1.455589 1.8076428 -1.529569 -0.3283515 -1.6269454 0.9698902 2.2631698 0.70704424 -2.5881116 0.27679905 -0.14114077 -0.579211 -0.12390235 -1.3579061 -1.8865951 -2.667094 -2.307578 1.2653985 0.10806288 -1.090082 0.5293846 -1.5151563 -0.18596247 0.17605284 -2.0960584 -0.021688571
你 -0.56291264 -1.4155152 -0.4842109 2.2781367 -0.3419658 1.5543902 -1.3402373 -0.6166529 0.30839193 0.3522325 -0.6936008 -1.0590962 -0.86150277 1.1831311 -1.6458871 -1.1669447 -1.5424476 1.3094597 1.1145753 0.5093238 0.70947224 -0.5999049 -0.8312141 0.66042703 0.19774452 0.95383215 1.2575293 -0.08312841 0.6859488 0.50024694 0.009612835 -0.50197756 1.0165732 1.6431934 1.0177621 0.6986094 0.31278384 1.0252223 0.33928883 0.02218045 -0.44251975 0.7000882 -0.13062721 -1.6775776 -0.07900083 -1.4624094 -0.06332439 -1.0156525 1.350339 -1.3915075 0.49532792 0.19543783 1.7948285 -1.1654682 0.3139531 -1.3262447 -0.7353408 0.250765 -0.4740989 1.2889229 -0.18237051 -1.285714 0.21710753 -1.3169881 -0.50720704 -0.60285616 0.6892304 0.2058024 -0.63564736 2.0039666 1.341853 -0.33426654 0.77403605 0.83718616 -1.0654023 0.7229406 0.78612924 1.5255506 1.8198291 -0.30183315 -1.5573211 -0.9667446 0.4460363 -0.9250481 -0.6446805 -0.83306944 0.39264807 -2.0425653 1.2659575 -0.15329829 0.64445794 -0.7801013 0.36572197 1.557243 0.025751306 0.10537595 0.094511814 -2.07604 0.11618003 0.27450007
要 -0.25074053 -0.07832879 -1.5175248 -0.31339723 -1.4536612 1.0323788 -0.6185221 0.5859114 -2.0928419 0.61338264 0.67317975 -0.32480234 -1.5842354 0.80268073 -0.46995318 -0.11747754 1.7080426 0.2555393 1.1753731 1.4324952 0.7111345 1.3475121 0.44345507 -0.612197 -1.2162534 0.45933524 0.1224967 0.693059 0.2046441 -1.6566103 0.18212758 0.8529825 0.08849363 0.8324375 0.54604596 1.3448409 1.3057349 -0.11710068 -1.1956413 0.55364525 -1.7942472 0.119087964 -1.2691126 1.2632996 0.0016132047 0.14918733 1.7857496 -0.46085337 -2.1076908 0.08360162 1.2925014 0.6558628 -0.25175673 0.49004835 0.9910863 1.124188 0.588744 -1.5375957 -0.19773287 0.78271484 0.8948789 0.15875044 -0.19037136 0.63590205 -0.620685 -0.7728041 -1.0213988 -1.0175114 -0.93871516 1.269486 -0.30802795 -1.0336303 0.84377646 1.5947142 -0.57806075 -1.6649278 -1.2767234 2.315187 -2.0093832 -0.87848526 -0.17320248 0.4499518 -0.2494677 -1.4183049 1.5308477 1.0443981 0.86252403 -1.3967091 -1.4504657 -0.17804432 1.4229702 0.25255215 0.61767787 -1.1668599 0.12090216 -1.0181649 1.012984 -0.11266175 -1.3583088 -0.7800877
通 -0.33499494 -1.008708 -2.3579814 -0.7056814 -0.6049293 -0.6059467 -0.98132074 -2.5758219 0.17606789 1.5616145 -0.70985943 0.6169716 -1.1959767 -0.31851873 1.1178871 0.2594645 -2.3831198 -0.92827713 -0.06419351 -1.5251892 0.8515653 0.30448905 0.75620496 0.14864802 0.8636284 2.6045146 1.470301 1.5748452 -2.274859 1.880894 1.4497051 1.9146643 -0.78990173 0.76325405 -0.014297212 1.2924725 -0.85440654 1.8517758 -2.0635908 1.7137913 -0.90448064 1.0036896 -0.5720482 -0.53477436 -1.458147 -0.6346393 -0.50515217 0.3309068 0.15248682 -0.6758584 1.0912776 -0.044854946 0.19849123 0.6961111 2.6164582 0.8349388 1.349482 2.057932 -0.36285543 1.2354183 -0.3923368 -0.4703359 -0.10525062 -0.2772095 0.5273721 1.311573 -1.6157228 -0.8492164 -0.10692417 0.013189648 -1.2649343 1.2332036 0.5896961 -0.7990535 1.1107994 -0.9704181 -0.4568926 1.5139619 0.4242405 -0.15951033 -1.012917 0.18914798 -1.1384261 2.22227 0.1515698 -0.6587279 1.0050178 0.62308323 -0.008846533 -0.44740382 0.41963688 1.0381655 1.9394599 -1.1408644 -0.6608077 0.78782177 0.7165494 -0.33292574 -0.781397 -0.27800035
如 -1.475712 0.3443478 1.1904683 -1.6721826 0.008806601 0.010296625 -1.1831906 1.1758858 0.0010112069 -1.7403679 0.1451304 -1.2189828 0.7435254 0.5968387 -0.5688148 0.36697415 -0.014499973 1.7284398 -0.17042752 0.6508575 -0.43808416 -1.2305813 -1.7031283 -1.7426513 2.25318 -1.5329477 0.59371805 -0.4755739 1.2895224 -0.997159 -0.3249117 -0.21828467 -1.8260036 -1.4916434 0.3035857 0.852514 -0.14758651 2.3123295 0.9561311 -1.3995131 0.97124183 -0.9158029 0.15701903 -0.6082286 -1.6469157 -1.5374606 -0.84310657 -0.2013464 1.0377204 -0.102891415 1.7750254 0.031550184 -0.9723679 0.023285445 -1.3025752 -1.0343807 2.5598419 -0.45439887 -2.0414762 0.8347474 1.0794517 0.65000314 -0.19808199 -1.7298738 -0.6866213 -2.6556342 -0.6729713 0.13125506 -0.50036067 1.4145846 1.2658504 -1.0468683 1.4119853 3.6973965 0.0379652 0.59244156 1.4671019 2.0348966 -1.4856515 -1.6948351 0.84534043 1.0635129 -0.4110465 -0.8949529 0.42767128 -1.4303623 -2.0999296 1.653881 -2.0696955 0.45356032 0.6886757 0.5756162 1.2469442 -0.9855156 -1.4515216 -0.3987397 -1.1908172 -1.3695834 1.9841852 -1.5204029
号 1.128903 -2.224132 0.21335071 0.35637918 1.7487215 1.0706244 -0.66489303 -0.064466186 1.6246077 0.5258599 0.5729852 -0.9361293 -1.380598 -0.9595572 -0.60681695 -1.1394124 1.4180958 0.7088971 -1.695752 2.4869635 -0.17264764 -1.8307115 -1.5248845 -0.54094446 0.8052573 -0.096919104 0.98226637 0.34037992 2.182101 -1.7190725 0.69599056 -1.300803 0.23132972 -0.8222662 0.2859277 -1.9337353 0.5955872 -0.7573876 2.576141 -0.8084763 -1.0008035 0.000589867 1.4970825 1.0964725 1.4287025 -0.78797954 -1.3393157 1.6402333 0.41906288 3.0266194 0.24237472 0.40858233 0.63145643 -0.023681074 -1.1062024 0.03133441 0.27321225 -0.3239708 0.016359583 0.6970038 -0.26241124 0.14597924 -0.02365406 -1.0688385 -0.34794313 -0.24057902 0.121478036 2.1957579 0.8469704 0.19645485 -0.20118447 -0.6215813 -0.7089307 -1.657161 0.68826926 -2.0017653 0.3698087 0.71094143 0.18261886 -1.1931629 0.2146188 1.3890195 -1.4308379 0.14064431 -0.21411736 -0.65042245 0.9576362 -0.36765483 0.8440348 -2.2161157 -1.718595 -0.121733785 -0.33698136 0.53001565 -1.367791 -0.779863 1.7200863 0.21652164 -0.7240732 -1.8177088
卡 -0.79309976 -1.8805496 -0.49720898 0.14992015 2.438732 0.5618114 -0.5931905 0.04781369 -1.0439073 -1.2631713 -1.0911984 -1.1003965 -1.1430261 2.0283253 0.85605824 1.6819842 -0.64375293 1.3536991 0.18994036 -0.733107 -0.26541004 -0.29660362 -0.9588667 -0.44957322 -0.12137829 -2.5007083 2.416465 -0.12838157 0.61838967 0.94770265 0.03321966 -0.14830567 1.3406854 -0.22078767 0.543603 -0.40326685 1.2667377 -0.08721673 0.020011652 2.1850793 0.5380062 -1.168109 -1.6653686 2.4458213 -0.73654115 0.45663255 0.5125052 1.9778936 -2.3198836 -0.8248761 2.299999 0.40451592 1.5387555 0.00318637 -1.8854905 2.0975583 -1.969117 0.032500975 0.77745026 -0.20414461 -1.2466494 -0.140086 -0.4970777 0.20773286 -0.18502496 -0.3080821 -0.04034189 0.21792611 2.1558666 -0.8773793 0.98619777 -0.54839545 1.0578083 0.7169322 -1.5376663 -2.4741135 1.0042795 -0.73040104 1.5161384 0.99299484 0.022730827 0.6465999 0.70348763 -0.7632813 1.0309361 -0.9958047 0.00029840085 -0.28899133 2.5593958 2.0841043 0.017494587 -2.0526328 -0.25741607 0.9600214 -3.0575528 0.6431353 -0.1545067 -0.8165521 0.74087316 0.19613883
开 -0.4021556 -0.020785991 1.1132746 2.7029974 -0.6756164 1.1541219 2.552107 -1.7724805 -0.6299986 -0.90752435 -0.12409517 0.12886955 -0.08052724 -0.875505 1.395584 0.23031652 1.329165 -1.2908169 -0.15325345 -1.3571781 -0.37799457 2.7878158 -0.8822779 0.12430516 -0.60090214 0.3127181 1.3101901 0.57977736 -0.22569469 0.73458123 -1.3266432 0.56653416 -0.70548624 0.14977305 -1.5653125 1.1279166 -0.9213575 -2.0333533 0.12608314 -1.0172673 0.25546548 -0.16253749 -1.3376391 -0.39568692 -0.4226141 1.5493345 2.1472776 -1.7897773 0.05129041 -1.7856687 -0.45800784 0.35263017 -0.85664177 -0.5927475 0.12384966 -0.9625861 -0.48245934 -0.70830363 1.5947161 0.9824028 0.29572308 0.31162545 1.7263422 -0.40252888 -1.0925894 0.3785852 -0.1308031 0.03976284 0.76570654 0.2794676 1.5360489 1.902335 0.06539268 1.0245684 1.2082921 -0.52040386 0.81029433 -0.8688898 -0.6673568 -1.0344131 1.899349 0.17172424 1.9860246 -0.85146695 -0.67025673 -1.5163515 0.69496363 -3.057831 1.7112559 0.7280759 0.6862015 0.6074348 -0.26733 0.85018575 2.0192795 -0.6728533 0.7340705 1.336903 0.26589477 -1.0331072
何 0.62944376 2.3651824 1.477955 -0.33539164 0.9077843 0.047719024 0.6248665 0.41487736 0.2611675 0.42436352 0.4980851 0.6856818 1.8704389 0.71181434 -0.33525768 -0.68375266 0.37114412 -0.6055902 0.8372081 1.448431 1.884529 0.33692157 0.13727365 1.6990228 -0.21604647 -1.326387 0.041776154 2.3688674 -0.8544019 1.2042928 -0.3954373 -1.8983104 -0.627824 -1.0274376 -0.17104785 0.95583755 1.7204895 -0.15512839 0.36805126 1.3320261 -1.3878535 1.7733423 0.3826286 0.5220876 -0.043111086 1.0403478 -2.543966 2.0928373 0.9734721 -1.7134186 0.049214188 -0.258608 -1.4251854 -1.0597837 0.5472423 0.83790517 0.20894328 2.52394 -0.07621691 -0.45454487 0.8763906 -1.8092431 -0.38203296 0.71859026 0.70553005 -0.31414738 -1.6024001 -0.389025 -0.40358496 1.2665877 -0.512888 0.17874654 0.13852283 -1.6080561 1.3727611 0.6544285 2.0966887 -0.0069008726 0.08843158 -0.96568596 -3.3041916 0.43793043 -1.4240532 -0.16209944 -0.67655134 -0.13705535 -0.33228457 0.036194876 1.9771829 1.3959124 1.9317577 0.001977352 -1.467014 0.5121283 -0.8275293 0.11051908 -0.25234914 0.7002491 -1.9842969 -2.1962264
信 0.6075111 1.2532302 -1.3499911 0.62735057 0.25679335 1.4969808 -1.2763191 -0.8834577 -0.0458771 -0.040779363 -0.13346654 -0.15693763 -0.22910427 -1.9814932 2.3698735 0.52033734 -1.079959 -0.37464875 -0.36965594 -0.1381992 -0.9283077 -1.6474967 -1.8260603 -0.24427699 -1.4448497 -0.14283274 -0.59968615 -2.193183 0.67835385 0.29900375 -0.009417847 -2.273909 -2.019711 -0.5208242 1.9802928 0.71282184 -0.11656798 -0.17782056 0.1476374 -0.8526101 -2.7398925 0.7657296 -1.9840772 0.14082764 0.961806 1.6917291 -0.3640137 -0.8208575 -0.5963123 -1.1335652 -1.1428335 -0.45907593 2.5581167 0.0105963405 1.7107507 0.31508395 0.7111956 0.6765777 -0.35480922 1.2478911 -1.59726 -1.3935894 -1.63445 -0.9355238 1.0953736 0.20909002 0.6939277 -0.1513793 -0.27449438 -1.9496965 -1.7185172 -0.2974949 -0.7294433 -0.58063537 -0.6301601 0.3573753 2.1392672 -0.55634904 -0.032429118 -1.3422579 0.43323493 3.2805102 1.8219804 -0.12987404 -1.2360145 0.26210663 -0.64078045 -0.07674401 1.7096838 0.10452298 2.9347553 0.44715646 -0.4582863 2.0613825 0.16667645 0.6805656 -1.8045288 -0.31720024 0.79430836 1.3126345
好 -0.86929125 -1.3671092 2.0190392 -1.4599571 0.2098593 0.8781733 -1.5617579 -0.007502295 -0.64274645 1.5486755 -1.2745112 -2.1601608 -0.39304334 -1.1233193 0.1422004 -0.966863 0.74955165 -0.041718364 0.60330397 1.703037 -0.600362 -0.6213781 -1.0001185 -0.4623278 -0.092780374 -0.6459342 0.6348901 0.45861173 -0.85201573 -0.91613173 -0.013904632 1.0489764 0.09353003 0.7746917 0.9276301 -0.47145244 0.85260934 1.6358861 -0.15975776 0.9177791 0.49352193 -2.0394826 -1.1205156 0.41727936 -1.0564173 -1.008043 0.34519675 1.5868627 0.27743718 0.5522287 0.6489504 -0.8113542 -1.3169875 0.2396521 -0.608631 -1.7911156 1.5743465 0.3251894 0.94486386 0.38181248 1.64126 1.0203959 -0.10838488 0.2905448 1.8730379 1.2462143 1.566658 -0.45911422 0.51525664 0.20186897 -0.5577327 1.2173911 0.030212391 0.46487883 0.64420766 -0.92357093 0.46364856 -0.07243769 -0.30533165 0.78298366 -1.5389146 0.21790381 -1.1087834 -2.5502594 -1.2920442 -0.60702837 0.7076869 0.15593384 0.60170615 1.174054 -0.893139 0.9120614 0.54600656 1.0489848 0.6498472 0.31237328 -0.16306739 1.7035753 1.3181592 -0.2551734
1 1.6102217 0.97609264 1.7735466 0.9790976 0.52935165 -1.085243 -2.0866199 0.5741012 -0.72427696 -1.8184999 -0.22829062 -0.15972246 0.41830355 0.6943605 1.4253498 -0.389637 0.8309079 2.6842675 0.515179 0.16480252 0.36926395 -2.3096344 -0.15230493 -1.8766881 0.8612566 -0.50615156 -1.610753 1.8394861 0.86788744 -0.41074744 0.88652 0.45466202 -0.65358037 -0.36490247 -0.08526417 -1.6865762 0.767639 1.6403531 1.7622799 -0.36855194 0.5344114 0.36233914 0.7278342 0.57904935 -2.4137292 0.15843734 -0.7293254 1.5604806 0.9221903 -0.73084855 0.7264806 -1.965506 -1.0031912 -0.5026594 0.80052215 1.567446 -0.8431314 0.3561648 0.55169374 -0.02147957 -0.41122636 1.4505677 1.814423 1.1369723 0.8375856 0.46348882 0.91069585 1.5934044 0.068322286 0.85369766 0.2993662 -1.4664757 -0.0124533465 0.9818336 0.090242416 0.6539828 -0.5895673 0.7347914 -1.0796025 -0.66146356 0.55062747 -0.056918364 -0.3845084 0.6776915 0.055754136 -0.3151292 -0.038841534 -1.3357466 -1.5494258 -1.2863019 0.80984634 -0.8465198 0.2292798 1.1272272 -0.37838605 -0.13169223 -1.9311229 0.15884659 -0.020994527 -0.8076467
个 0.9229488 -0.6820651 0.85039276 -0.15264006 -0.5692341 -0.052872792 -1.2324564 0.083153196 1.17779 0.625908 -1.9971061 -0.7179509 -1.2983536 0.57572865 0.0055526816 -0.83294946 -0.092179574 0.47376359 -0.40913314 1.7010844 0.21374616 -0.8883595 0.09150811 -2.3513331 -0.28217643 0.26948035 -0.23537534 0.43679821 3.0461874 -0.32933527 -1.5893713 0.088061355 -1.112187 0.4532808 0.7869546 -0.19629027 -0.8237319 -0.7045284 -0.54459935 1.4175726 -0.73181635 0.37500298 0.92192733 0.43298692 0.57925856 2.7755404 -0.29737625 -0.073933914 -0.40391752 0.9612717 0.9810694 -0.56490016 -0.23387592 -2.0002024 -0.2694792 -1.0664356 0.13704142 0.30545807 1.5592629 0.3124167 -0.33672523 0.5823893 2.1079605 -2.1051831 1.0387005 -1.2863053 0.90749156 1.6968548 -1.3602394 -1.4576097 0.9682678 -0.57909226 0.1979189 -0.114731595 -0.7329033 0.2793532 1.5196072 0.10503517 -0.46037427 0.66343856 1.1486229 0.38827696 -2.6049082 0.39433625 0.47465983 0.03567474 -0.22777206 -2.1094487 -1.9284549 0.5234635 -0.45209056 -1.0330167 -1.4758747 -1.1664977 1.670649 1.7866294 -1.6712828 -0.74398917 -0.9781244 -3.0669332
在 -0.24046879 -1.7644346 0.19591339 -0.42893797 -1.1819284 0.89862883 -0.5465996 -0.27372056 0.5594108 1.909202 0.86912465 0.7876551 -0.5005925 1.9491106 -0.6791563 0.19902587 0.23806885 -2.4247243 -1.7706327 2.080156 1.4790124 -0.47258547 -1.2726429 -0.72145027 -0.6724754 0.76836014 0.45145753 -0.06810699 0.6270005 0.5227104 1.3142761 1.4991549 -0.5197661 -1.0660042 0.029308008 -2.1204917 0.49773467 1.3886381 1.1034719 -0.3315917 1.3219317 -1.6761854 0.46224865 1.9065022 -0.32945076 -0.6991034 -0.12526056 0.60625684 -0.57722056 -0.7870116 0.38403994 0.82079643 1.3334057 -1.8709189 -0.92817086 2.1381686 -0.50665206 1.8183644 0.6065733 0.9986126 -0.7922545 -1.7665707 0.31474116 -0.14385104 -0.01589837 -0.6206977 0.4161941 -0.64623374 0.48276207 -1.5202432 1.3527806 -0.00033151303 0.17856668 -0.86964893 -0.2557464 -1.2480936 -0.021350803 -1.1032565 0.49714062 1.4623876 0.4238678 1.1948699 0.17938487 -1.0073307 -1.9335421 -0.2477083 1.2653784 -0.8382139 0.016682208 2.1321907 0.6473166 -0.16235809 0.29831028 0.4538776 -0.43133047 -0.031555012 0.0351742 0.52105314 0.69693947 0.53004616
度 0.52189505 0.56261116 0.69149035 0.27383605 -1.4845992 0.92203563 -1.8667133 -0.7583166 -0.35439643 -1.1003633 0.8774168 1.8870727 -0.17569499 1.3969127 1.4355181 0.45419005 0.077722564 0.30526698 -1.0670359 -0.7130809 1.042102 -0.44765633 1.7118998 -1.5123537 -1.2742326 0.7824418 -2.2137928 -1.0217376 1.0659778 1.1113473 -0.16722906 -1.2180102 -0.57899475 -1.665602 1.8540075 0.18564619 -1.0249205 0.92429113 0.8378369 -0.30044553 -0.33287758 0.49838385 0.7655299 0.82734424 -1.0013164 -2.4746444 2.2071738 -0.5984035 0.21954 -0.8081346 0.49080563 1.123116 -1.7919135 1.0236552 -1.6498309 0.07307157 1.5657375 1.2052243 1.2716898 -0.44652918 1.0210204 1.7014825 -0.006871691 0.58771557 -0.6601069 1.4993278 -0.51327837 1.0687953 1.4418147 1.0172335 -1.2209119 -0.41746852 1.0023255 -0.666552 -0.12793134 -0.5468183 0.74657965 1.9739995 1.4423604 1.1123791 -2.231263 -1.1254836 -1.0661134 1.7415646 -0.9414442 -1.1307963 -1.734807 -1.1518772 0.8430184 0.8368367 -1.5547912 -0.85298127 1.4543073 -0.5168319 1.1674001 1.2049683 -1.2957695 -0.046898816 -1.6712753 0.4824734
过 0.77245325 0.38193765 -0.5437953 2.029002 -0.6603005 0.9360767 0.942857 -1.2920369 -0.85064477 2.1660724 0.9002531 0.90238094 2.1065972 -1.1658344 1.3629869 1.8990824 1.1365074 0.92916876 0.6718459 -1.3669606 -0.0032998363 1.3851583 0.078555025 0.49351665 -0.72871274 0.6288 0.9969774 0.0007850586 0.17659198 -1.6457458 -0.6337671 0.690695 -1.1134022 1.0797036 0.9811318 0.4156593 -1.31192 -0.59272194 1.3715193 -1.127176 -0.07420409 -0.24237728 1.452162 1.7462549 0.6642627 1.429422 -0.61261797 -0.6138537 -0.15539913 -0.769978 1.0869902 -1.5459473 -2.153542 -1.4263394 0.6754594 -1.0107168 0.89112633 0.31618598 1.02797 0.02667104 -0.70479923 -1.6923184 -0.6345541 0.26961666 -1.2485218 -0.9648906 -0.6206718 1.4379255 1.3308916 1.3316561 -0.086482614 -1.0749606 0.39970312 0.8638118 -1.0608617 -0.92669773 0.82143307 -1.1637312 -0.845626 1.7181801 1.3787972 -0.91814303 1.4459054 0.7422884 -1.4583086 -1.3570486 0.7571377 -1.0703577 -0.6408283 1.5848641 -1.1597604 0.033837665 -0.043651808 1.129269 0.34464756 -0.8890042 2.9230926 1.680691 -1.0098585 -0.3602768
期 0.66944265 -0.43094355 1.2754427 -0.47371152 0.596417 -0.3156829 0.035216272 1.13199 -0.17845984 -0.79449993 0.70567524 -2.0876205 -2.026444 0.29834014 0.9650145 0.3101578 -0.4777039 3.8758752 0.008405245 2.900867 -1.2698627 -2.2419593 0.6762015 -0.8506629 -0.40380657 1.6843245 -0.07384693 -0.5699549 -0.22387148 -1.3203424 -0.01231438 -1.0683342 1.1404856 0.32981122 -0.76632446 -0.8939093 0.35986453 -0.012459549 1.9082674 1.500395 -1.0270517 1.2302649 1.2808746 -0.69921154 -1.5783684 -1.4618113 -0.65228003 2.2883644 1.0571786 -0.75999725 -0.009193676 -0.86362 -0.25470278 1.708519 -0.8448225 1.6789049 -1.2421304 1.2133757 0.5874506 -0.29447603 0.7229661 0.7457475 0.6507243 -0.61071724 0.02780388 -1.2520572 1.238015 0.7142011 -1.1252813 -0.40592232 0.7294468 -0.9405869 1.5529745 0.34417465 0.7516309 1.1173886 0.2572898 0.36736557 -0.8415175 1.9084644 0.444307 -0.42175406 -0.47802585 -0.60268307 -0.54409593 2.135476 1.954358 0.4790231 -2.9160185 1.0229894 -0.36100823 0.7493135 2.1254416 1.0881394 -1.4499785 2.6933367 -0.85770595 1.1693071 -0.1779982 -0.32086498
前 -1.008551 0.6955049 1.0171738 -0.52372676 -1.638253 0.57645345 -0.78112674 -0.09303179 2.4294498 0.04978394 -0.5336422 0.5727381 0.109624416 -0.10278699 0.47340772 -0.16387254 -0.64724207 0.78510714 -1.9599942 1.2937825 -0.45426643 -2.2142787 -0.69018334 0.67409503 -1.5313115 0.119481154 0.2376754 -0.49438408 0.60760564 -0.49038213 -2.1570792 -1.5731589 -0.3463596 0.95283616 1.2358321 -2.2125392 0.7660574 1.3887125 1.8947129 0.4413288 1.6418139 2.38946 -0.6944313 1.198934 -1.3304498 0.4441781 1.3046054 0.16136935 1.2315817 -2.1334121 1.9274107 -1.4582032 -0.5851337 -0.10405701 -2.739482 0.9865094 -1.0855714 -2.1230025 3.08545 -0.9466384 -2.1042073 2.9951017 -1.5402019 0.10266545 1.058739 -1.3239304 -0.94774395 0.97219104 0.018401885 -1.3584366 0.07309588 -0.1712334 0.18245214 1.3376545 1.4448144 -0.26428774 0.20640315 -0.50744385 -2.8399374 -0.53212404 -1.2284224 -0.28227076 0.50951874 -0.94257337 -1.9037083 0.59647256 -1.6877799 -0.7549255 -0.8152138 -0.17648612 0.82022405 -1.199934 1.8342918 1.8608432 1.7204558 0.17488658 -1.1240793 -1.4284506 -1.1812527 -0.3015771
用 -0.9962604 -1.1107707 1.2734493 0.6616348 -1.1207476 -0.48533097 1.2048196 0.6727404 -0.4995549 -0.49480963 0.014339901 0.43957692 -0.48105955 -1.0465168 -0.33366382 -1.4622929 -0.49232724 -0.019795656 1.0521876 0.3276377 0.4234205 -0.59463876 -0.22239144 -0.4587272 0.2199763 -0.42419955 -0.056111157 -0.6329897 -0.02929841 0.62488997 -1.1551222 -0.41956857 0.5562082 0.7277673 -0.8616359 0.39921087 -1.7975192 -0.74092484 -0.28926554 -0.445216 1.1472136 0.7179159 -0.30927223 -0.26090604 -0.23452272 -0.7163787 0.48100114 0.4504656 1.4199827 1.1129372 1.3533407 -1.9449708 -0.4132766 -0.08185606 0.3784614 -0.11710817 -0.22492707 0.65899384 0.45165282 0.8708563 0.06961729 0.94392955 1.9819958 0.9315883 0.4262809 0.8775907 -0.7073281 -1.1110487 0.36336467 -0.4818583 -1.3173542 1.441754 -0.37730744 -1.0634325 2.2223537 0.37519526 0.14460516 1.1925281 -0.01386245 0.42896587 0.7128932 2.3397093 0.6839834 -2.8602755 -2.51173 0.5089197 -0.028638957 -0.6497236 0.42521217 2.6686175 -2.3005161 -0.6727582 0.61042225 -1.2731045 -0.18436009 -1.019369 0.8902994 -0.50098825 -0.09380807 -1.0439758
利 1.5382285 0.15466419 -0.15477145 0.5749135 -0.119762726 -0.2757056 0.045738608 0.9601082 -0.2645714 -1.9350338 -0.56154686 -1.3492891 -1.3391364 -1.792371 1.4088088 0.8571964 0.02586882 3.7199903 0.64282954 0.80977416 -1.33325 -3.097238 0.34392864 0.39155677 -0.058137983 1.8321257 -1.8432436 0.98797077 1.225101 -0.51196474 0.6702021 -1.7556884 -0.99287784 0.93826824 0.27953953 -0.2063005 0.03931281 -1.4156336 0.4217327 0.32872707 -1.4817927 -0.018240884 -0.41865212 1.2280251 1.3253843 0.5496168 -0.3309476 -2.8076913 1.7716041 -2.4585953 0.041662876 -1.7592884 -1.4550767 -1.0910009 1.6326107 -0.412924 2.0924108 0.2014298 1.6228085 -0.3153043 -1.1136664 0.5043565 0.27659225 0.83071905 0.015929298 -1.2246251 3.3238697 0.65015614 -2.3171678 -0.77366936 0.3096617 -0.15184179 0.7624015 -0.3119951 -0.5456521 -0.32146156 0.81323946 0.4029303 -2.7295804 -0.0028956886 0.15842424 1.4914297 0.8161637 0.87593895 -1.0123038 0.69565815 -2.5027897 -1.0060005 -2.2063665 -2.2515078 1.0888389 1.295162 0.4201907 -0.7006705 0.11026853 -0.26757443 -1.2772634 0.25135913 -0.40842316 0.9358191
少 0.7541829 -0.34077504 0.045624007 0.5672762 0.26003885 0.9666466 -2.272588 1.6421936 0.1640138 -1.3685863 0.879819 -1.5069811 0.53820825 -0.39685792 0.045271385 0.5215247 0.25329953 1.4831617 2.1908927 1.4572082 -0.59377795 -0.8898894 0.86480623 0.81231505 1.2915804 2.8755207 -1.4935821 1.7291583 3.3123026 -1.3151034 -1.5799102 0.23713668 -0.8207925 3.0873797 1.5071714 0.87754107 0.51325226 -2.1117628 -0.23076372 2.5318127 -0.66386706 -1.5163304 -0.19596305 2.7098827 -0.7611107 1.4618728 -2.5491385 -1.5125613 1.0321321 -1.0072919 -0.44021866 -2.0402656 0.5383565 -0.99638593 -0.011271641 1.1019644 -1.2137676 -0.54140335 -0.23261546 -2.4186895 -0.07154641 -0.82328737 -1.9119924 0.55958694 -1.7067509 1.3636354 -0.058583543 -0.4130258 -1.656346 -0.07505601 -1.3261175 1.8570775 1.6355519 -0.20709723 0.6091935 1.2212987 -0.8522732 -0.30545768 -3.5175562 2.5422297 0.21534106 0.29587606 -1.7734689 0.2336613 1.0474176 0.61241853 -2.8881364 -2.0749338 -1.5009971 -1.2135819 3.472412 0.24117647 -0.44350162 0.060781937 1.1493669 0.9202998 0.44238296 0.008500665 0.44129995 0.5514796
后 0.21402541 1.7301905 -0.39169714 0.22517148 -0.49387452 1.5642136 0.5223886 0.18230726 2.2379434 0.25113514 1.577534 2.0502846 0.053350754 0.7940775 0.28476936 -2.3631206 -0.41432658 0.5730331 -0.6319888 1.0913528 -0.838267 -1.4943461 0.41144386 -0.8624354 -0.8863374 -1.7265456 1.0757515 -0.8171325 -1.2474139 -1.1983457 -1.324717 -0.111419775 0.25667816 1.8574163 1.594144 -1.6676158 0.6135445 -0.068903744 1.3365895 0.7130646 0.4820332 -0.55516595 0.56465244 -0.25162476 -0.090800256 -0.15391307 -0.5991691 0.52570575 0.84317327 -0.9280637 0.8747901 -0.21674357 -0.659334 -0.29283598 -1.139388 1.6251644 1.0143923 0.9187098 0.27300176 -1.3599195 -1.3069885 1.6898094 0.40707266 -1.0644051 0.24193212 -1.6116168 -0.98124635 0.2295355 -0.63474137 -0.23415844 -0.91391325 -0.18673913 0.01783086 0.6257284 -1.1680254 0.5358213 -2.4671736 -0.7725635 -2.2754798 0.03647183 0.37853664 -1.8261557 0.1090737 0.11990784 0.017334295 0.85235137 -2.2551763 -0.14115967 0.39193234 0.94881576 0.10810516 -0.23035027 1.5912752 0.48218834 1.0175214 -0.721246 -0.82418084 1.1691453 -0.70458746 -0.12706105
手 0.8953213 -1.5600703 2.5745547 0.28752434 1.6149573 1.9946053 1.5530876 -2.1696763 -1.297339 -0.978927 -0.77199936 -1.9168792 -1.3739747 -1.0486472 2.28013 -1.4370553 -1.0203636 -2.2762597 -1.7645115 -0.82942903 0.19603588 0.31392625 -0.3114795 -0.13156149 0.04140076 -0.56514007 1.845311 -1.3793957 0.31608233 -1.9110764 -0.33804527 -1.7270373 1.3041269 -0.69364005 0.039364673 0.28122997 1.5606214 1.2516553 -0.106132865 1.5281352 0.9436225 -1.6253346 0.29430082 1.6703516 -0.4157166 0.75550824 -0.9186128 0.29786298 -2.1121387 0.93803436 -1.3578175 -0.83874226 -0.19424042 -0.74724305 0.5369185 -1.2017424 -1.1910175 2.0270166 -0.2854418 1.9795079 -2.473247 1.890064 -0.5144715 -1.3329806 -0.09971771 -0.89711404 0.85307425 1.2198185 0.27156374 -0.8643481 0.2448064 1.6132709 1.163723 -1.1965398 1.7810439 -1.4352155 -0.055121608 0.9780535 1.2990313 -0.8571502 1.9874685 2.251188 -0.22512099 0.75307786 -1.1528105 2.1287162 -1.9273443 -0.9938722 2.1565695 -0.33609608 -0.9055379 -1.1603551 2.0763245 1.4467171 -1.8100059 -1.8955731 -2.255289 -0.9590017 0.54928637 -1.1025099
审 0.8202491 -0.81401944 -0.8644728 1.9997602 -1.9745841 3.036882 -1.0819931 -1.9584135 0.10262752 3.7100918 -1.407228 1.6757772 1.4735619 -0.4290738 0.34529892 1.8697965 -1.1592062 0.22405632 2.0228932 -2.6427588 -0.27694765 2.9358063 -0.537348 1.286816 -1.5722055 0.84210163 1.584008 1.7700963 -0.899733 0.96998525 1.6360695 0.12267262 0.910852 1.6527855 2.0248187 1.9015316 -1.7280266 -0.4258898 -0.21827452 0.7883051 -1.5634601 -0.91149175 0.57541317 0.26963547 0.5660306 0.5112776 -0.29984716 1.6247218 -3.3049989 -2.55016 1.5318339 1.1226707 -1.2147099 -0.74158823 1.4427043 0.77378154 1.970374 -1.023239 1.4595144 0.6503974 -0.5092289 0.3020195 -1.9931844 0.9272606 0.16068837 -0.3468052 -1.7560018 0.2875937 0.048269257 1.2190696 1.4790596 -2.84831 1.1351389 0.2339743 0.38262442 -0.7839497 -0.00048035895 0.32906258 0.3541664 0.3389469 2.0852325 -0.7023613 -1.3933979 1.9601814 -0.17249593 0.5034302 0.18015584 1.0352166 0.18312062 -0.6012775 1.4557581 -0.78653044 -0.6526743 -0.29692882 -0.82556605 -0.78765017 -0.35282028 0.43373367 0.06343311 -0.093746066
申 1.6828121 0.90695053 -0.5133909 -0.007837887 -0.79521734 1.762665 0.6294696 -2.3719895 -0.2372234 2.604945 -1.0558976 1.2717164 -0.80909604 0.37199327 1.273051 -0.07955155 0.8297863 0.6200933 -2.5399704 -0.33507428 0.57373095 0.670511 -1.138814 -0.54276115 -0.41965476 0.36141422 1.5918316 0.551298 0.976925 1.9221729 0.8071221 0.6314676 -1.5658443 0.028791739 2.2276373 0.11184428 0.71247464 0.3928386 1.4762725 -0.098839626 -1.1537119 -0.98795867 -1.001777 -0.98585415 0.0875624 -0.98328876 -1.4907916 1.3301455 1.5634263 -0.32736975 -0.9103935 -0.82221687 0.5734997 0.7965586 -1.7049934 0.09662226 -0.017563136 -0.6997288 3.621757 1.4508945 0.20050053 0.6247442 0.6439365 1.0719303 0.9551601 0.24339904 1.5129052 0.16699657 -1.8416678 2.078369 -0.43286777 0.26533648 0.579488 -0.4873514 -0.12872958 0.6201212 -0.5897427 -0.24863516 -0.6495498 1.6823645 0.6164943 -1.9039572 0.045000527 -0.5634746 0.26725885 -1.1868136 -1.152829 -1.0498799 -0.13379434 1.8187754 0.16824311 -0.10368534 1.4895153 -1.0020236 -2.530861 -1.7501591 1.9642379 0.4268603 0.1506866 0.37640822
证 -0.7320294 0.20396534 -0.86831486 -1.9270135 1.0680524 0.620349 0.70619184 -0.017885175 -0.7379338 0.061025124 -2.2932606 -0.92107135 0.45718613 0.84976465 -0.7486245 -2.526829 -1.7163659 -0.7213006 -0.5817075 -1.997261 0.50738394 2.2528718 -0.5708374 2.648347 0.51291484 -0.9087691 -0.34188598 0.9176453 0.7592707 1.1877772 0.23122117 -1.1211498 -1.7965156 0.09697886 0.6540958 -0.84349823 1.6629347 0.2556682 1.9584932 1.1737437 0.18547857 2.2641666 0.96099436 1.2948047 1.3882751 2.8732033 0.6435539 1.5245274 -1.8723928 0.058552127 -0.7055442 2.141718 2.4939258 -1.2155344 -0.84736294 -1.1628158 0.2710245 1.9466017 -0.8034616 -0.5787098 1.6042703 2.1760106 -0.6684049 -0.783589 1.3614604 -2.5919907 0.25310263 -0.25600144 -0.10066618 -3.513718 -4.3830514 1.382171 1.1798685 -0.38834587 0.48214045 -0.16586483 -0.57303977 0.3702822 -1.6199268 -1.4267211 1.408644 0.5134852 0.40510377 -0.010794513 1.1606702 0.15689354 1.7437354 -1.5435593 -1.6280955 -1.1643091 -1.013968 -0.8500809 1.6955751 2.2546954 0.20739682 -1.2756037 0.73440677 -2.2298222 -1.787193 -0.1480086
现 -0.6495372 0.9586951 -0.45093864 -0.9770808 -0.33861828 0.1767109 -0.8534061 -0.05656847 -1.7864264 -2.0636268 -0.914075 -1.156136 -0.1262093 -1.8657988 -0.30027312 -1.0057935 -0.30332083 1.5750263 1.5733129 -0.0715209 -0.33143434 -0.55980664 0.005396856 -1.1601756 -1.7211205 -1.0293111 2.039384 -0.98319966 -0.83056915 -1.1966921 -0.7646989 -3.4799469 1.3461949 0.12363434 1.431621 -2.5315664 -1.5588332 1.9861262 1.3511425 2.0354297 0.950019 0.16599125 -0.3953251 -2.8750105 -0.429833 1.5748756 -2.071827 0.92525935 0.98684794 0.8211067 0.7975648 0.77967733 0.029828655 0.8917987 0.087108575 0.0809149 -1.1167444 -1.7301054 2.2048323 1.410278 0.47619924 2.3312185 -1.4658493 -1.2850151 2.1974986 0.5213566 1.028507 -0.25299206 0.83008575 0.0464611 -1.4873314 -0.7320379 -0.48028904 0.51020366 -0.14232957 -0.058452155 0.25511247 0.5182424 -0.70509624 1.2619777 -0.83973575 -3.1005008 0.45293364 1.2511314 -0.37716353 -1.3379052 -1.318555 -1.101691 1.5403979 0.49228993 -1.701435 -0.9523797 -1.0802426 1.6066748 -0.69280696 0.67287344 0.31504425 -2.5299234 -1.323947 1.1419419
机 0.7711567 -2.742566 -0.41821212 1.3055527 0.7843599 -0.60244596 -0.2659707 0.4051253 -3.290014 -0.10670268 -1.0051916 -2.2968009 0.25672698 0.7987485 2.411852 0.19740662 -0.047496103 1.386752 -1.2719333 0.23031873 0.37916902 -1.0415717 -2.6187875 -1.0427207 0.81428015 0.30011493 0.70669895 -1.2498134 -1.8466653 2.3659017 -1.6921915 0.6470715 -1.9435428 -0.9776196 -1.4307824 -0.07447311 -0.6076975 -0.9786747 -0.22707649 -0.8553291 -2.0468829 0.6887235 1.2044094 1.2246509 -2.3158982 0.069896616 1.8899075 0.54129666 -1.0669111 0.9663758 1.7752603 -0.4370905 2.6705856 -1.9067246 -1.7861134 -0.5208196 1.6190486 0.15338543 1.4729465 1.5307398 0.14953113 -1.3413951 -1.896965 -1.8832438 1.2130136 1.1067185 -2.659705 1.213204 2.0150409 -2.923345 -1.8466718 -0.8189418 -1.2296783 -0.78437155 0.9815876 -1.2420235 0.69276613 1.5668231 0.15120557 -0.8501075 -0.74252975 0.06951488 1.9631761 -1.2685856 -0.5840519 -1.4879287 -0.30150247 -1.2445961 1.9771823 -0.19621632 -0.019884637 -0.82090217 0.21323597 1.2643887 -0.62098473 -0.03374318 0.50732744 -2.9213073 0.6572 -0.29402137
月 0.083147414 -1.59542 1.0500752 -0.026941605 -0.20789923 -2.365589 -2.8189218 0.13795389 0.35771486 -1.5621552 0.5498316 -1.8312081 -1.7897005 -0.022440812 1.6040282 -0.08259145 0.6032892 1.9507518 -0.44352654 0.74964607 -3.66862 -2.3064003 -0.88114464 1.1783631 0.6725513 1.2027149 -0.5892039 2.398782 1.8221679 -2.1038535 -0.15004808 -1.6400819 0.10304894 1.3224096 -0.07047325 -1.1873323 1.4956814 -0.70615673 2.3308861 -0.045442134 -2.2128785 1.5361334 0.9646188 -0.27454227 -1.1323903 -0.025525097 -0.16082856 0.8820898 0.6596967 0.50085396 -1.2499449 -1.0181841 -0.95817035 -0.6278249 -1.6674433 -0.14104709 -1.5894771 -0.2401694 0.6240037 -0.9433082 1.2013606 1.4184176 -1.2045273 -0.22406535 -0.49886033 -1.5252875 2.0797057 2.166223 0.62603414 0.8038991 0.33367896 -1.2845317 3.2426903 0.7797781 3.2683787 1.8187021 -1.1013114 -0.56010884 -1.4131123 -0.09987799 -0.017858667 3.375767 1.2479582 -1.4790635 1.919817 0.2921331 -0.5985831 -2.0639827 -2.1099217 -1.1168 0.4670787 0.6305818 3.2495155 0.6231348 -1.000218 1.4790798 0.45758817 -0.468686 -1.3137367 -0.7457002
会 -0.9910739 1.7295381 -0.33965382 -0.08076579 0.047608018 -0.20286539 0.35392562 1.0132641 0.47357816 0.0393634 1.7271761 0.10515987 0.16937572 0.13450046 0.20980863 1.5031836 -0.7250884 1.2761377 0.04002283 -0.99334776 -1.1110951 0.6601153 0.43402413 -0.57139146 -0.26750517 0.21399774 -0.1997967 -0.040632684 -0.38235322 -1.9723611 0.4333577 1.5207511 -0.20175576 0.20203382 0.9627087 -0.8835479 1.0081223 -1.5093523 0.56221366 -0.015743844 -0.63656515 0.6697129 0.06329489 -0.69369656 0.99652404 -0.4637694 0.24023868 -0.08925582 0.73234636 -1.859836 -0.9540459 1.5873193 -0.6318361 1.559703 1.079668 0.6182812 1.7467402 1.1016426 0.28325033 1.6917586 0.75684166 0.52449036 0.40068567 -0.38035667 0.046914093 -0.92832756 -1.9482697 -1.5411178 -1.3364221 0.35219243 0.45793697 -0.17231491 -0.26052207 0.16106403 -1.4680431 -0.37949744 0.14803043 -1.8979253 -0.75281054 -0.18266347 0.56336385 0.16086526 -1.6094768 0.87599385 -0.8053864 0.60295653 -0.3662119 0.60923904 0.8588404 1.5637834 -1.0286887 -0.6419571 -0.008731995 0.032098904 -0.8594093 -0.5253509 0.6497696 -0.3814788 0.19152121 0.7725926
扣 2.1885765 0.50146675 -0.2597643 0.1332989 0.9092588 -0.511941 0.09309681 -2.0096948 -0.58984876 -0.8399046 2.7967708 -0.18467064 -0.9628169 -0.42754835 1.4505687 1.344674 1.5139852 1.8139666 -1.309537 -2.334549 -2.362718 -2.4124162 -1.6775668 -1.1378834 -1.0081649 0.32582504 2.397432 1.0625064 1.0665187 0.6542573 2.07317 0.07726686 1.7310927 1.1367688 0.5802848 -0.6631895 0.23494636 0.0051481114 -0.8662153 -0.11329589 2.8821547 -0.539524 -1.2890668 0.19017684 0.7177429 -0.2911521 0.75543463 1.5032367 1.5861232 -0.66710716 -0.23389554 -0.5829586 -0.7925151 0.43376353 1.2871425 1.6479752 -1.287623 1.2044307 0.92501897 -2.1214356 -1.2730708 0.23253839 -0.7581739 1.3078189 0.5921063 -0.43066218 0.30623448 1.146784 0.6199213 0.09338269 2.6349497 -1.212594 -0.5699244 0.17104192 -0.822192 -0.18228874 1.8121233 0.8512275 -0.41824058 2.1013892 0.099643156 -1.3431115 0.30693853 -0.44458047 -2.036694 0.035549045 1.8334785 -0.45189768 1.3914771 -0.05753386 -0.7963746 -1.0063893 -0.32031554 0.35784242 -0.16267797 0.21691255 -0.3386003 -1.4955198 1.1454792 0.32761845
码 -0.8592525 -0.9172822 2.297277 -0.5890895 2.287699 4.08746 0.048344158 -1.4645523 -3.323001 3.3211854 -1.3673798 -0.3630014 1.2197917 -0.58792394 1.8542745 1.1887137 -1.3969668 1.6349069 -1.1930094 0.04421588 0.943803 0.1788819 -2.9619026 -0.6749302 0.8451792 -1.3524902 -0.42485914 0.5502456 -1.1182107 0.29789388 -0.79206365 -1.4604462 -2.4508202 -1.7450043 -0.3862794 0.27795586 1.8896908 -1.7252272 0.7420467 -0.4609714 -0.5673725 -0.5532717 1.1326029 2.3609715 0.767506 1.893237 1.073141 0.68338186 -3.563049 0.8493511 -0.4435718 -0.6350162 2.177521 -0.8461102 1.0920159 2.3589664 -1.2552638 1.2874477 -1.1273293 0.38395178 -0.82165205 1.6212476 0.2345254 -3.3729255 0.5657854 0.31334844 -0.6585194 -0.052030206 0.7395907 -2.2442586 -3.3434649 -0.8388171 0.49152339 -2.2877066 -0.7345616 0.75527936 -1.5479738 1.0467653 0.12833427 -0.6827048 1.1859794 -1.0220039 0.51955587 0.7257056 0.06394529 2.1831653 -1.0723032 -2.150092 0.566349 -0.91640186 -0.47329047 0.7367724 1.4148281 -0.07595383 0.21248278 0.15068634 0.030367184 -2.1872516 -0.13979498 0.23340252
取 0.2848002 -0.13714932 0.073475234 -0.17272976 -1.4889209 0.6606473 -0.61204547 -0.7490093 0.4334318 0.906315 -1.0488266 2.1182382 -0.70361066 0.73439455 0.20285437 0.15726572 -0.61747515 -0.9654981 -0.76696223 -0.60913897 -0.27988097 1.7543459 -2.865788 1.0983258 -1.1616857 -0.56305635 0.10109331 -0.027018927 0.066129796 0.44543573 -1.1328945 0.72128075 -1.0373361 0.39563522 0.8588629 -1.2223116 1.0231038 -0.28343308 0.89130205 0.4742526 -0.24176437 -0.46260613 1.914 -0.11923722 1.2081285 -0.13650051 -0.33125037 1.291325 -0.63809836 0.65691185 1.5836028 -1.0876273 0.35133985 -0.37021044 -1.8445225 0.49987093 0.822915 1.1184851 -0.36876562 1.1235852 -0.49595657 -0.14359507 -0.2374079 -1.2040851 1.5508727 1.4588127 2.0935206 0.122584745 -0.71951735 0.049764622 2.4545376 2.6773775 1.3049762 2.00185 2.427041 0.16599433 -1.5506583 1.3645674 1.7077318 0.63807803 -1.1217346 0.82996464 0.93730754 -0.89839095 -0.41621363 -2.6156404 0.6571874 -0.50118655 -0.09485814 0.191953 1.539584 1.8325106 -1.4872316 -1.9111235 -0.8118355 -0.16659345 0.938971 -0.9432499 0.15529282 3.0015855
次 -0.29563835 -0.35307765 -0.6952339 0.6794357 -2.0469089 0.23187982 -0.77218634 0.40926975 1.5009753 2.1557775 0.25893736 1.2267991 -2.1284168 -1.020173 1.6216451 -1.759235 -0.08875906 1.6666983 -0.2851595 0.12540197 -1.5398939 -0.5248908 0.9717826 -0.3346064 1.4831069 0.7277818 -1.2686183 -1.259694 0.39077786 -0.7065645 -1.2974364 -0.2639187 -0.054102313 0.23059823 1.9283127 0.14197801 1.1568115 -2.274749 1.4488939 1.5589896 -0.048287246 -1.2146112 1.3421286 -0.9940177 1.1033108 0.993893 -0.81166375 0.756483 0.5812821 -1.188107 1.6065087 1.2728142 -2.631805 2.431095 -2.447628 0.8358969 -0.1016105 1.7499838 1.7296605 -0.68774074 0.89686155 2.1247227 -0.34194434 -0.06690816 0.46339044 -3.289621 0.3263526 0.53202647 -1.0909702 -0.79879045 -0.21604188 -0.4872466 0.8228749 -0.9990481 -0.038472965 0.6153026 -0.20983268 -0.48432615 -1.0542731 -0.002639159 0.121902235 1.125137 -0.20955049 -1.911588 1.3591774 0.48810998 -2.3409998 -0.8156087 -1.8027664 1.6805037 -1.6236506 -0.09595319 -0.91537434 -1.1096255 1.8300396 2.280697 1.3864369 1.041262 -0.9112748 -1.5344592
清 -0.07503109 -0.96310365 1.816521 -2.4886587 -0.5629501 1.5835998 -2.5881498 -0.48439798 3.543916 -0.24356258 -0.87219954 -0.026791545 -1.9117157 -0.40012512 0.84709316 0.7355765 -0.19771315 0.67358625 0.14450596 0.42754087 1.3309386 0.5598798 0.93838376 0.22974868 -0.19194888 1.0116885 3.4921927 0.38617963 0.5982253 0.9427072 2.1669505 -1.3833042 0.7918365 0.5562528 -1.8652275 -0.42385253 3.2710633 -0.30212262 0.6552746 0.9481106 -0.98516953 2.4673789 -0.4727708 0.19415629 -1.0818479 -0.4464378 1.797452 -1.9714597 2.6496649 -0.08971227 1.8074397 0.04566946 -3.0170476 -0.71321636 -0.5449659 -1.1890109 0.7189344 1.5223249 2.2475207 -0.45169303 -0.5881788 2.036914 -1.1695523 -2.0311587 -0.26370543 0.22674434 1.4640701 -1.4456304 0.026389966 0.93305546 -1.1189173 -0.6703582 -0.2972342 2.0504897 -0.119871356 -0.28778157 -2.577038 -0.22888748 -2.5760343 1.7930814 -1.0170509 1.1370155 0.7311685 -0.27109182 1.0678905 -0.8363227 -1.1054416 -0.9878865 -1.8668765 0.86358064 -0.49945557 -1.435116 2.4297404 -1.0252218 -0.41713193 0.43065676 0.35161963 0.19042447 -0.11057742 -1.2115644
候 -2.698143 0.42867574 -0.6932505 2.4185684 0.34167698 2.6810389 0.28213423 -0.5088258 1.0968966 -1.2596666 -0.16883136 3.2207422 -1.2105099 0.27681562 -0.153085 -0.22747473 2.4309072 -0.1788291 1.5586392 -0.79977405 1.6061417 0.8266345 0.5402282 1.2117838 1.7596709 0.14138587 1.2761132 -0.1600405 -0.60214156 0.57080144 -1.9360434 1.7087443 -0.47516426 -0.97925293 3.96112 -0.73762757 1.6332096 -0.5147689 0.3939226 1.0498362 -0.750095 -0.19088048 1.4808466 -1.3917375 0.5730466 0.21552476 -1.3181835 2.403389 2.8307698 -1.2363266 0.4375171 2.445922 -1.4140893 1.0547085 1.0772212 -1.1890005 2.2789755 0.17023368 1.870933 -1.1491152 -0.2524564 2.1619117 1.3691728 -0.84236544 -0.8438308 1.5544574 -0.1907204 -1.8439991 0.5262345 -1.9414797 -1.7524773 -0.46686614 -2.6742616 -0.24488491 1.5132478 0.5613436 0.0053623705 0.73901415 0.012161774 -0.70572305 -0.382851 0.97126585 -0.049287453 0.3757341 0.10173587 2.656161 1.7671376 -3.167179 0.5078999 1.5397437 1.5167556 -0.23211843 -1.4149411 1.2934918 -0.22763717 -1.8457491 -0.38120842 -3.3153734 0.2205779 1.3273003
消 -0.72384185 -0.9053523 -0.94753504 -0.6329602 1.2934076 -0.8060274 -0.69253385 -1.2445768 -1.9632355 -0.059382904 0.21194749 0.30482 -0.685244 -0.0039370223 1.3343474 -1.2023171 0.59113 -0.72647256 1.5506259 0.96929115 0.685283 -0.4385064 1.4906855 0.44763145 -0.26909286 -0.37188154 0.24848844 -2.8961737 0.87855273 1.0773114 1.9199489 -0.92897713 -0.7341319 0.6424102 -0.48949957 2.5558488 -0.80253905 1.078215 -2.373521 -0.8794711 1.8825221 0.24322006 -1.4450847 -1.6988633 -0.7777878 -0.44198963 -2.4212806 -1.3952951 0.64987004 -0.98810196 0.27462688 -2.4622984 -0.72939503 0.28377184 -1.8242713 1.1764034 -1.0070828 -0.6145017 0.9815541 0.4414223 2.1134593 1.7564946 -1.0575622 -1.4176611 0.8189023 1.1645683 0.79518807 -0.35206094 0.08505705 -1.3026671 -0.69644195 2.2472987 0.23301682 1.0189803 -1.1353004 0.7625691 0.9740657 0.008602605 -0.76795524 0.3733847 2.3866208 -2.2698286 -0.7440839 0.7676062 -2.0542977 -0.072129436 1.3230128 -3.0746024 1.4122918 0.77146214 0.31623942 0.28935456 -1.9669905 -1.0866432 0.64537233 -1.3724195 1.7056392 -0.12153589 -1.34953 0.33862734
上 1.5942153 1.6917008 2.7001388 0.9740459 -0.21636544 0.7241503 -0.0816863 0.2879924 0.5838764 -0.13298012 -0.9823864 1.0026828 -1.1253611 0.5091267 -2.0279253 -1.2638428 -0.99257743 -1.0908906 0.9049559 -0.05811355 0.19796051 -0.3024235 -0.2535073 -0.35909057 -2.675722 1.4617912 -0.23682903 0.4579414 1.1217248 0.83371973 0.29399714 -1.3538587 1.0853429 1.2007425 -0.8453575 -1.2635041 -0.6334806 0.7506187 1.3542042 -0.55501837 1.0110024 -0.054528378 -0.37407702 -0.5092704 0.059397582 0.49081993 -0.16972941 -0.042493306 1.349873 1.4295794 0.17348605 -0.20938669 0.7073388 -0.61661565 1.1484553 1.7551234 1.7814021 0.94300085 0.6723309 -0.7433693 -1.019702 1.6859602 -0.15419337 -0.0067327092 0.088659905 -0.8272989 -1.2225538 -0.07321885 1.5781502 0.10502413 -1.1429751 -2.1293187 -2.404984 0.4449592 -0.91764385 -0.35042274 1.1994194 -0.31657606 -0.73404396 -0.15296705 1.6714418 -0.9125519 -0.026384106 -1.3431656 -1.6867719 -1.3631494 0.528327 -0.49789995 1.4046512 -0.64170384 -2.0222774 -0.4270766 0.28119522 -0.43027723 -0.40433308 -1.4678797 0.35074663 0.1457416 -1.1346812 0.9255174
打 0.044144604 -1.1361641 -0.8212802 -1.6328734 1.2017877 2.4726937 -0.25892797 -1.1110166 0.7159429 2.811854 0.8309068 2.398759 1.6084845 -1.3486731 0.7271281 -0.4373103 0.27128038 -0.04556113 0.076445006 -1.8431696 0.1617818 -1.5841382 0.5955168 -2.018826 0.011117301 0.40020776 1.6142529 0.52084374 0.24529274 -0.27998364 0.43579614 0.8987475 -2.705574 1.9860773 1.848636 0.7245642 0.253139 -1.0071056 -0.9630076 1.6807165 -0.69510216 -0.35909355 0.5571606 -1.6925997 0.8011085 -0.54576784 1.2578939 -0.41457295 0.34281576 -0.28705785 -0.3004528 1.5338808 -1.7148162 1.0791285 2.8764553 1.5113548 -0.016056305 3.0216556 0.16252322 0.5378089 -0.8771212 0.3627138 0.4465757 -2.6000693 1.7546067 1.0572889 -1.1007164 -2.323036 0.27538142 -0.6014051 1.286772 -0.4370783 -0.6024408 0.030111328 0.47689727 -0.68390673 0.09447082 0.0132007655 0.74554193 1.7880487 -0.26834217 -1.1590688 -2.3449097 -0.3146595 -0.5168302 0.0021686407 0.2680319 -0.007948099 -0.8283506 -0.6875509 -0.43908536 -0.15520316 0.6767113 -0.015389386 0.1742539 -1.1811252 2.0043917 -2.6078608 1.0248697 0.66335815
示 -3.0249057 1.8590599 1.1982588 -0.55946714 -0.5016753 0.5641758 -2.3386474 -0.03636596 0.15182944 2.22123 -3.6999078 1.0113713 -1.090978 -0.7928348 2.0039399 1.5503784 -1.2526435 0.75180995 -0.3783776 -0.6245452 -2.2650254 1.1107807 0.547877 0.62149626 -2.224857 0.27090597 -0.24247839 -1.0151671 0.45580405 -0.22218305 -1.4154879 -0.9846291 -3.261773 1.0921011 -0.19754377 -1.385853 1.9292794 3.7751992 1.0270528 -1.0661939 0.4583142 1.5194745 -0.86092556 0.6424749 -2.7886164 0.6974589 -1.1959376 -1.0069753 1.3234223 0.4982003 -2.3676372 2.3800423 1.249085 -0.6578943 0.36413014 0.38327107 0.7551433 -1.5366296 1.7527201 0.11656798 -1.4943718 1.1847523 -2.0439074 3.26313 -0.2085202 -2.4468179 -1.4527476 -0.3811101 0.5236251 1.4056761 0.3838164 -2.3032565 -2.4411142 -0.15180053 0.55966026 -1.1925669 1.9103782 2.713372 -1.4234741 1.564255 -1.2557744 -0.7993652 1.2918254 1.5477953 -2.5548038 0.8931638 -1.7582859 1.2488846 0.19422933 -0.9697658 -1.4856607 0.05157898 1.1695557 2.4503326 1.6054606 -0.78767806 1.2756553 0.21195005 -0.9892763 -0.50905067
失 -0.5119695 -0.24160591 0.3461851 2.2963395 -0.28283766 0.21515235 1.2028788 -0.23923074 0.29793495 0.7760823 1.270906 1.3337343 -0.96698517 1.0005016 1.0495459 2.9942458 -0.45816353 1.2952574 -0.8231521 -1.7997676 -2.5086067 0.18097892 -0.70171195 2.1819277 -0.13426659 -1.8858929 2.909461 -0.8853483 3.0001574 3.0095954 1.060761 1.4634359 1.0632131 0.19309075 -1.2393409 -2.3394887 1.0852053 -0.82703215 1.9365811 0.6587302 0.969924 0.05421395 0.38499573 0.5587249 -0.19460358 1.3320473 -0.31188095 -0.22759779 -0.4696557 1.3923757 -0.18405093 1.4257597 -0.85479426 1.5899404 1.1816732 1.8341327 -0.14692464 0.5280029 -2.1525254 0.21120511 0.26611337 -1.6117145 1.0258733 1.058523 3.0611439 -1.3314536 2.4888785 -1.2930695 0.921462 3.8456874 0.8949507 -0.44610482 -1.2627034 -1.881291 0.338852 -0.5749259 -2.3052397 1.8652229 -1.0106872 -0.033566043 0.63453037 0.61505336 1.0182664 -2.927804 -1.6914681 -0.5461599 -2.2857053 3.083226 2.3669133 0.76072955 2.300967 -0.18552595 0.5822393 -0.20767538 1.1958268 0.5853539 -0.78685796 -0.7398752 -1.9110554 1.2593071
日 2.0850134 -0.11494641 -0.017651428 -1.209797 1.2582428 0.20995682 -0.5325572 -0.5405689 1.1624184 -2.5428689 0.7735912 -1.0547129 0.83391213 -0.05197133 -1.2530073 1.2858592 0.55581653 1.9231191 0.12687972 0.21750082 -0.9063469 -1.8377781 -0.93831915 -0.9900846 0.7203903 1.5493677 0.15688528 1.5183878 1.0947734 0.18766885 0.90521455 -1.6859856 1.2112161 0.52944046 1.9316378 -1.0068103 2.2327116 1.0030079 1.35709 -0.9867009 -0.59736854 0.43773445 0.49667072 1.0043868 1.037821 -1.3031695 -0.020462537 0.4611494 1.3220853 -0.13726802 0.12986279 -3.0714343 -0.9139992 0.6262998 -1.3351787 1.5555115 -0.057775654 -0.7769608 -0.39766443 -1.2189543 1.0777984 0.89728314 -0.14975874 2.3348374 1.2662061 -1.065447 1.3416663 1.5396129 -0.6103889 0.20245616 0.65075976 -0.3523235 -0.10585408 0.63943315 2.2124422 0.544003 -0.6880179 0.55877686 -0.72612995 0.28102827 0.015651297 0.9711466 0.48110577 -1.2702049 -0.2905337 0.46808264 0.037777 0.32229072 0.00097486 1.1298634 0.38808 -0.755832 0.29997563 0.61477053 0.84797853 1.1842074 0.47248912 0.21722198 0.484018 0.28294337
来 0.73064315 0.12788786 -0.45898867 -1.2071127 0.1507828 1.4677117 -0.7844933 -1.6800206 1.9241143 1.6339256 -0.82666165 0.4692989 0.6120562 -0.7502911 0.87180895 1.6035489 -3.6520956 -1.2570583 -0.77734584 -1.9290229 -0.9968744 -0.29600057 0.8094724 -0.7470175 -0.65279996 1.0327928 0.46230242 0.7644755 -0.049045846 -1.1856046 -1.0436312 -0.6492392 -0.38073382 0.84113765 -0.49466535 -0.666537 -0.31726182 -1.700944 2.5372863 1.9956568 0.9053686 -0.7709288 -0.6725847 -1.8986479 -0.5527779 0.13159636 -0.96489894 -0.10731909 -1.3809243 -1.5956832 0.5334006 0.78477174 -0.27871865 0.72979784 -0.33241877 1.1493554 1.1059345 0.71236473 0.26451877 1.450864 0.4174854 0.21874914 -0.65379435 -0.4114078 1.5611645 -1.2715564 -0.07543619 -1.2588711 -1.665616 -1.4783063 -1.6063645 -0.7376065 -0.45802218 -1.0151366 0.12555636 0.20535462 0.16389719 -1.5835195 1.1486301 -0.17565046 -2.035422 -1.9242891 -0.06859701 2.7868552 1.3338817 1.2530346 2.0375364 -1.029269 0.6707793 0.8639786 -0.76171684 0.92056704 1.3712689 -1.2104789 -0.5825593 -1.0825484 1.6927251 -2.1711512 -0.100705065 0.30156916
下 0.65800536 0.16263267 1.6444491 0.52495104 0.01144577 2.3849764 -0.13373874 -0.14822258 -1.037469 1.5434989 0.37195265 -1.151748 0.11710947 -0.47840062 -0.59823334 -2.3420742 0.5965659 -1.0031588 3.0563862 0.83434045 0.74407536 -1.8862721 1.0855074 0.18771203 -0.51671195 -0.639248 0.8680193 -0.61613137 0.29747298 -0.37471104 0.14943062 0.061114665 -0.35133255 1.9921553 -1.4138111 -1.9088497 0.75804067 -0.5983456 0.20051287 0.5882706 -1.1756393 -0.23702241 1.559251 0.1808582 -1.1394715 -0.57500327 1.5281751 1.8979136 0.9728203 0.86393803 1.1217283 -0.5419371 -1.2063763 -1.3476428 0.73550284 -0.2885757 2.3785267 0.76291347 0.6988184 -1.8494745 -0.29868272 -0.3929687 0.5228216 -0.073177814 -2.0050628 -1.7443714 0.22173122 1.3638837 0.24210584 0.9453668 2.07465 -1.9264177 0.9865363 3.12404 -1.0169845 -0.8353897 0.6352292 -0.19087654 -1.3556378 0.34678814 1.4946952 -1.0594897 -1.548468 -0.25582132 -1.4534799 -1.3319514 0.01456119 -1.1075977 0.6409696 1.441266 -1.0468876 -0.4487858 0.40025958 0.31872422 0.3043017 0.59388417 -0.29604697 -0.74264544 -0.9996994 0.31484902
久 -2.6764703 0.9057316 -2.934643 1.2408975 -0.9926309 2.6603866 1.7560023 0.16923608 2.9301674 -0.33891976 0.42395797 1.0360144 2.1430085 0.5611547 1.7761762 -0.28651217 -0.012294381 0.45088768 3.3415587 0.98668206 1.710429 2.5860112 -0.00085966405 3.0052118 1.6651367 2.236564 0.9579117 0.8826034 1.9046717 -0.41016868 -1.8446846 -0.32192242 -1.527566 0.58183753 5.367191 0.5912998 1.9192228 -0.871643 0.5621644 1.6238501 -1.77155 -0.6624194 1.1037278 -0.7257053 -1.201109 1.5470929 -1.1814619 0.52335477 1.669498 -0.123628475 0.22656761 0.768304 0.5915289 -0.5767778 -0.6407211 1.3944329 0.8512647 2.385943 0.10929437 0.31618214 1.0572377 -0.9803038 -1.7093064 -0.70566255 -1.6926692 -0.29650128 -3.034386 -0.47022972 -1.1277092 1.0879362 -1.1931888 1.8818053 3.487932 0.5007788 0.08685113 -0.45152995 0.6792267 0.9680835 -1.4346564 3.200212 0.03610891 -1.4339238 -1.3397268 -0.25825703 0.5252367 0.6139023 -3.4857585 -2.4299417 -1.6387173 -0.05900072 0.8052394 -0.674131 -1.3980627 -0.092600636 0.5466864 1.6517094 1.371202 -1.3904369 2.0025723 0.67586064
更 1.4797994 -2.1115859 0.8207448 -1.1642157 2.9520264 2.5322537 0.77903444 -1.1911157 -0.9470852 0.37397453 0.07424091 -1.0422815 1.6121653 2.5270402 0.49442726 -0.2586817 -1.3551013 2.4730773 1.4575752 0.8379095 1.0607568 -1.7129931 -1.2824131 3.1999712 1.463314 -1.7486192 3.9154704 -0.40471196 0.5364349 -0.3456109 -1.1838019 0.45843646 -1.0739328 -1.2833686 0.77789444 0.31484124 0.047051217 0.20260763 0.9748705 -0.21527101 2.089437 0.9080525 0.50247926 0.873249 0.22592665 0.5477706 -0.30205533 0.8606202 0.14981812 0.04950353 1.550629 -0.3340513 -0.33873957 0.8462169 -1.1101027 -0.88324004 0.5288164 -1.7179508 -0.7317318 2.4504683 -2.1771414 0.83492476 -0.230043 -1.2932378 -0.7816739 -0.16191724 1.042366 3.4748406 -0.79482657 0.16473983 -0.7623387 1.7728523 0.37327415 -1.4902527 1.777709 -0.9530297 0.68846864 -0.92456234 -0.46424973 0.50029063 1.560416 -0.3819929 -1.8408333 -0.98319215 0.4267176 0.05214887 0.2324772 -0.3799694 0.92225164 0.31237102 -0.8417307 0.36758748 -2.4611597 -0.89607066 -1.1336017 0.21334858 1.6775173 -0.71533686 -0.7859904 -1.1609925
改 -1.1654462 -0.1484646 0.36927506 -2.1399937 1.6034026 1.4707602 -0.6076134 -0.4041196 2.3304853 1.5878357 -0.5074283 -2.9268227 0.15650937 0.6910281 -1.574528 -2.2584918 0.18397774 0.85398173 -0.72318035 -1.4523519 0.8774886 2.0963244 -1.8822823 0.39214617 0.4332888 -1.5730641 1.49885 0.11454653 -0.2913532 -3.1639924 1.1407595 -0.7894574 -1.9311982 -1.9763972 -0.87822306 0.1702512 -1.8377368 -1.2357537 2.404139 0.14850914 1.0529289 1.9077697 1.4194555 -1.3874196 -0.326203 0.07215155 0.22412497 1.1483725 -0.22899103 0.37619385 2.3882291 -2.9158845 -0.53781855 -0.5262962 -1.295247 1.4931992 -2.2258325 0.7512325 -0.66714644 -1.0624889 -0.28415176 1.3824548 0.8406948 -0.69498104 0.14013076 -1.9199266 -0.29379928 0.4624324 1.8707492 -0.28858387 0.92572457 0.93122244 -1.2876967 -1.2205087 1.6083233 -0.96414804 -2.2261932 2.519947 -1.5701461 -0.82644546 -0.9378422 0.32962966 -2.5168438 -2.1691785 -1.5546641 1.9965143 1.3501362 -2.4047313 0.42968038 -1.6123759 2.4530482 1.0773915 -1.525217 -2.8228717 -2.0600476 -0.112296626 1.1243328 0.028804634 1.2313274 0.7238619
问 -0.19027501 0.2503453 0.18855046 -1.745962 -0.31697357 -0.090145975 -2.5414095 -0.9383388 -0.02853027 1.7341495 -1.1832868 -1.920636 -0.83635896 1.5997179 1.075969 -1.2250689 0.15488315 0.80105525 -2.6127481 0.5926101 -0.2713747 -1.7369523 -0.8043036 0.64882123 0.44391686 0.79374 0.75717044 -0.019821713 -0.4522738 0.82356167 -0.46678987 1.4708804 0.5832932 -0.5492599 1.3247534 -0.51006645 -0.4149528 -1.8371652 0.0684795 0.48854098 -1.003058 -1.8739758 -0.91710013 -0.74613726 0.86306024 -1.6221076 -1.2762326 -0.06725399 2.4663727 -0.4427112 0.63277364 -0.9808789 -0.009488494 -1.1205237 -0.77620125 -1.5820508 -0.8948403 -0.8606503 2.6043808 0.031924367 1.610747 1.1187193 -0.6037271 1.5323617 -0.44895405 0.23484863 2.2216952 1.5749173 -1.7154969 1.7248415 -0.86062276 0.81370556 -0.19410473 -0.5261623 -0.9904004 0.9901765 -0.28800604 0.39390177 0.7801365 0.22683059 -0.6483044 -1.6905882 0.7244783 -1.4028028 2.1930091 -0.59742504 -0.3931458 -0.48926178 -1.0371011 -0.18188909 0.65172446 0.4894684 2.0158148 -0.10517972 -1.6080608 -1.919378 1.1441535 0.45655677 2.58446 -1.190923
呢 0.3531717 1.0346191 0.07016035 0.80062085 -0.6335422 0.60962194 -0.19298352 0.17116779 -0.49723047 0.8846398 0.06734733 0.81927764 -0.47631603 -0.56215596 -0.61773944 0.19548462 0.18470322 -0.70476925 -0.6737775 -0.97620595 -0.16768147 0.26796615 -0.0853235 0.49141994 -0.88279325 0.80531794 0.5210482 -0.01577249 -0.7789152 0.09751274 -0.4974755 -0.024878899 -0.14418882 -1.0388147 0.34243667 -0.410066 -0.56941104 -1.4327353 0.042549632 -0.095258094 0.8058269 0.42049146 -0.11697628 -0.2814007 -0.10492297 -0.7074601 -1.0300922 -0.95631164 -1.355232 -0.38524923 -0.010049551 0.5945237 -0.5720404 0.6206194 1.3913894 0.47852078 0.50535965 0.95662224 -0.310204 1.2396193 0.19875576 -0.30495042 -1.5793368 0.1792301 -0.2581276 0.546461 -0.38467914 0.9514599 0.6438452 -0.52407306 0.7024053 -0.46771893 0.08735474 -1.3605751 0.53248817 -0.22895107 0.31765732 -0.18071471 -0.36276117 0.061047655 0.3015692 -0.54432046 -0.30531073 0.6665912 0.71161824 -0.08061819 0.09606239 -0.15871765 -0.24313296 0.25969148 0.60436726 -0.10783423 -0.37564012 0.63381624 0.91946554 -0.45039582 -0.5822136 0.3937632 -0.89240557 0.12823315
想 -0.36853656 -0.402211 1.8645468 -0.74219996 -0.14501345 -0.908385 -1.6696858 0.29844856 0.9525058 1.4833047 1.3814906 -1.4129043 1.44275 0.0076289997 0.29484156 -1.1054498 -0.44687885 -0.31844485 0.5204014 1.4813421 -0.258171 -2.3335207 -0.77265966 0.33297795 -0.8459792 -0.09183016 -0.070108764 0.01527575 0.2641236 -1.8455569 0.43255353 0.42066804 0.21480398 0.4337533 0.79546046 -0.5761703 1.1192732 0.2712355 0.33433035 1.4270349 -0.12475319 -0.7869523 0.4999096 0.36862797 -2.7620406 -0.9610526 0.14292993 1.2632834 0.02640358 -0.26793906 0.3602013 0.17879084 -1.6725181 -0.14809074 -0.5157208 0.034367025 1.6708425 -1.3225079 -0.046928704 0.95154136 1.3226616 0.6000318 0.31269485 -1.1682636 -0.42231506 -1.5025654 2.0634112 0.38858056 -1.4734122 0.7517637 -0.6895847 -0.4879855 0.785666 1.1329459 0.44199032 -0.5343405 1.9358734 1.4461751 0.44717258 -2.8315918 -2.46208 0.87761766 -0.51811343 -0.4751409 0.73984796 -0.7761 -1.3394883 -1.3189287 0.9921044 0.78987885 0.5150449 -0.51784515 1.3896058 0.63704646 1.8331374 -0.060546305 0.64404 -1.0184011 -0.52070296 -1.3221945
败 -3.2034779 -1.8164878 1.1908585 -0.5910381 1.6668695 2.6657825 -4.077718 1.9081879 0.25262883 0.60985357 0.8936813 -2.0161967 -1.1150792 0.6698633 0.20460159 0.22081836 2.4000928 -1.0984542 1.52831 -0.12169028 0.117395036 -0.6816546 2.110908 -1.0070497 0.50886947 0.87749535 1.4481591 -0.6218267 -0.95237476 2.1673062 1.3473502 1.3395422 -1.2844543 -0.32509273 0.54817814 1.2596124 -0.09197497 0.803347 0.7468419 -0.5044672 -0.3245691 -0.61270106 -1.3547692 1.8112514 0.6189997 0.9417491 -1.2965636 0.001056751 2.16089 -2.4612825 -0.86644596 -0.80368114 1.5461507 1.6384845 -1.5941831 3.0226688 -0.53188103 0.031269945 0.009662159 -2.8123822 0.7412437 0.84499234 -2.6184137 2.307579 2.4575248 -0.9224175 -2.1689386 1.5130996 0.69319683 -0.81178916 1.751993 1.2014896 -0.73620373 0.21532944 -2.1302576 -2.0588467 0.64554554 -0.66873294 -1.4980098 -0.16595547 2.8030386 -1.7798196 3.3358386 1.9537823 0.6099607 0.6835597 2.4228015 -0.15770112 1.8419313 1.2473425 0.18034987 -1.6854935 -1.7094737 0.4752903 -0.5078785 1.2417295 2.1700995 0.58870655 -2.000245 0.5583747
2 1.8684003 -1.114021 1.2283459 0.9675041 -1.0011584 -0.33975232 -2.1776366 1.106101 -0.6121376 -1.6313334 -0.23565157 0.0072826 1.1937805 1.4435345 1.0544138 -0.6569994 0.2648216 1.4719201 0.14610386 -0.25563893 0.8407963 -1.7473074 -0.63347256 -1.9461443 0.40360928 -1.0767426 -0.28633258 1.9617232 1.5816264 -0.73513204 0.5149908 0.43017748 -0.7737442 0.2976559 -0.31041247 -1.5192262 0.7806934 1.0173117 1.6522433 0.6255428 1.2917073 -0.08887574 0.6795068 -0.35638434 -2.2454844 0.66704094 -0.84993106 0.14756092 0.09015046 -0.26572144 0.004900856 -1.989157 -1.1455077 -1.4440353 0.9206875 1.2678045 -0.5349748 -0.23325467 1.4673256 -0.19314912 -0.12539484 1.5528119 1.0677367 1.4329568 0.28588486 1.115181 1.4202839 1.598808 1.0869894 0.7082527 0.507872 -1.2329234 -0.20683436 0.9657873 -0.29248518 1.5182061 -1.3868428 0.31902492 -0.7760784 0.25061136 -0.09433695 0.554123 -0.20738047 0.22765756 0.90291685 0.51830727 0.25443804 -1.2133136 -1.1429242 -1.098316 0.37172833 -0.9259558 0.5198366 0.6760437 -0.6429029 -0.75478256 -1.1806239 -0.44960254 0.30108374 -0.2019523
账 1.34736 1.3298727 0.9889733 -1.5885302 -0.4294188 0.29515624 0.23313755 0.30853102 -3.32857 0.79182535 -1.4496683 -0.318089 1.3661379 0.122980356 0.41787052 2.1785614 0.13120581 1.412561 -0.97276694 -1.2358018 -0.044254832 -0.4841388 -0.62265134 -0.8821277 -1.1734076 0.50065774 1.4610757 0.99904853 0.7741746 1.0033898 -0.50117034 -0.98395365 1.4225625 0.90823525 -0.64543927 -0.35939783 0.5556735 0.7295412 0.46478057 -1.1744596 0.19653563 0.90982246 -1.1484264 -0.4336613 0.27603537 0.008154563 1.283 0.20458788 -1.3169541 -1.7379545 -1.0235047 -0.434758 0.33426717 -1.2594656 -1.9348222 1.0327655 -0.8722797 2.1806314 0.7162027 -0.7078454 0.9424688 1.0629287 1.8914773 0.6965063 -1.2411711 0.7674368 -0.76618344 0.54809177 -0.31445965 -1.4215723 1.1102198 -0.51591533 -0.38540235 2.057904 0.72892356 1.527186 0.6500463 -0.47381356 2.0135882 1.8270793 2.2997808 -1.2031553 2.565592 -1.8401277 0.56818193 1.2993975 0.3217941 -1.9922379 0.5571626 1.534949 -1.1517414 0.3481612 0.3784411 1.0295252 0.2999955 0.4664191 -2.1782153 -0.68529314 1.567941 -1.2498953
未 -1.316905 -1.1882758 0.5451508 1.2179546 -2.0063968 1.9724251 -0.5259871 0.3756245 1.1950548 0.9559295 -1.53901 1.875186 -0.21751127 -0.95453686 -3.249973 1.2538977 1.5267069 1.222588 1.3695815 0.8052973 -0.78243357 0.10279341 0.7237486 1.2633951 -0.5302121 0.79920316 1.0152639 -0.98413616 0.53932875 -0.010591831 0.24684459 2.0599287 -0.7323175 -2.0508883 1.730667 1.8533279 -0.48961917 1.3443351 2.4932454 0.3587689 1.1322981 -1.6390213 -0.87622076 -2.2686448 -0.5879648 1.3604627 -2.04174 2.0028353 -1.6308236 -0.482455 0.3130027 1.6783457 -0.08851947 -0.88215923 0.5466728 0.79310197 1.0012728 -0.8527441 -0.87976646 -2.4618635 0.6049943 -0.022949949 1.5300485 1.2851949 -0.33704707 -0.8694841 -0.3101177 -1.0396258 0.5875753 0.11442491 0.5872479 0.47610375 -1.15827 -0.7380838 0.4529933 -3.1668222 0.46929073 -0.77452505 1.1783148 0.5245611 0.3563013 -0.80915093 -1.4421041 0.035851903 0.6149159 -0.59771705 -1.0275437 2.3649273 -0.97522026 0.49624625 2.8375175 0.17115487 -0.3959938 1.8755547 -0.24827519 -0.94314015 -0.95913213 0.40041748 -0.638149 -1.1555899
定 -0.48692283 0.5474308 -1.0150094 1.4279022 -0.7513185 0.669109 -0.992987 -1.342923 0.6298396 -0.41014668 0.35673124 -1.7638556 1.0404799 -2.1377904 -0.21356723 0.14277813 -0.93169814 -1.3656678 1.7235247 -2.152215 0.2602919 0.14971453 -2.3691938 0.06491073 2.2913284 -4.5315194 0.57061905 2.0739102 0.70744336 0.5652075 0.22216918 -1.2639776 1.0857583 -0.20661303 0.1545288 -0.9244967 1.7623819 -1.3754922 0.8947261 1.276499 0.97917867 -0.14368263 -0.74356174 -0.45575032 1.6456518 0.77871096 0.49282992 -0.30921116 1.2103624 0.43362957 2.5920095 0.80362654 1.6025938 -2.8648775 -3.0558944 2.1597223 0.13998564 -2.3198469 -1.0969297 -0.9475996 -2.4558475 1.7784814 -0.93823296 -2.0082345 -0.91516966 0.73691785 -0.9380685 0.11401531 0.84916234 0.6648814 0.9101901 0.5745428 -2.510062 -0.12259512 -0.7990736 0.19260305 1.929398 -0.4978349 1.3901312 1.9189882 2.016054 0.57591087 -0.68214995 0.38739207 -0.99364656 1.0910975 -0.3763113 -0.38609585 2.10743 -1.009646 -1.4359093 -0.07715767 -2.9544353 -1.9463471 -2.8669977 0.025362791 1.0232353 -0.08938367 1.3639483 -2.3381
